[[0.2020437722734172, -0.11718620959308297, -1.0811123843038495, -0.9215294203342973, -0.6926679769207785, 0.7860315467921901, 0.6580084121711216, -0.2826404527111807, 0.52090844740477, -1.1562662208710592, -0.9199094806912985, 0.44735239213956196, 1.1402131522201358, 1.1314189060429916, -0.88220957614398, 0.36392768989324453, -0.682800980405381, -0.7307575004695241, -0.7456486125614002, -0.4494494065608149, -1.0753932070661214, -1.035055538813477, 0.34813693116290406, -0.16629362132141373, -1.2056564200693511, -0.0023546431198978356, -1.142108761661535, -1.9377751875427343, -0.33726812615963436, -0.40002797621667613, -0.5569494249815595, -0.1427537093122785, -0.5355411842592028, -1.2696996858498584, 1.5204528976685272, -0.6738182008785003, -0.3086562191286021, -1.433222172116329, -0.464394140568996, -1.3440896284389154, -0.6537462036347541, 0.08555449667978265, -0.37045292559758597, 0.010230418922812384, -0.9254881728761716, -0.8578578805573481, 0.10247444662212701, 0.22295937509252214, -0.1310209008746885, -1.0099543433899592, -0.7300284829384664, -0.3315696606502956, -1.0313901261645027, -0.28888932565185427, 1.0276379798897792, -1.1789456822667221, 1.0562861229098544, -0.7424757657052228, -0.7240373214384237, 0.126522208485497, -1.0898714388483195, -1.0312096241958213, -0.8883925687249681, -0.04425673779107073, -0.09462769793711744, 0.3366074408725897, -0.1783121867813632, 0.02723066208555536, 0.5131434375757649, 0.37141737386677903, -0.4850477264004457, 0.33472984225411256, -1.3817464012169864, -0.7966672864593998, -0.31353386846900966, -0.8179358462635914, 1.3758100122231893, -0.053385856381744694, 0.045487300451270564, -0.554134045466945, -0.11146802374626871, -0.17050142816972425, -0.7984081366927205, 0.20377241285845252, -0.9133736068810836, -1.2731722025262282, -0.7172637190380923, -0.1611040937829801, -0.34340225432041277, -1.1210168178208695, 0.0489172777740887, -0.501872529654155, -0.37500885605225814, -0.8664055113305017, -0.27986428280850956, -0.7210537754938251, -0.21773634019696061, -0.6136157729000645, -0.8278957483698284, -1.0479046535186076],
[-0.2290887871059559, 0.24796457678926878, -0.6941799831773048, 0.6703796322919767, -0.5465483921728765, -1.0701392625306712, -0.387030725549903, -0.5888036715625123, -0.628582578544073, -0.8517296117553719, -1.3711929994045038, -1.1864743507616902, -0.5715541704449779, -0.43482910790166074, -0.4015681876427071, -0.19593272849419208, -0.09582553744678655, -1.609188843966407, -0.8698640880210372, 1.3774985952178556, 0.015225698028482112, -0.5456911846131427, -0.7597337888534063, 0.6956843998002462, 0.188660993815904, 2.1465365885066525, 0.3240384325428876, 0.5912584303913934, -0.4611234027403658, -0.2532207042225704, 0.13595947068178593, 0.3154807219866168, -0.04284120207709066, -0.8294827829275948, 0.7872801565805777, -0.9335728748096743, -0.2977638535569692, -0.9050611587709673, 0.8676870011084354, -0.6443057900684902, 0.22456852443206324, 0.018611792509040725, -0.5790521932155767, 0.5572950901494251, 0.05672198972734734, -1.460553972218319, -0.76059376613347, 0.835764331662385, -0.9510263560375887, -0.8189915855295532, -0.3132606644140323, -0.7259769294914398, -1.002975593628987, 0.5943376230502538, -0.5756860289797737, -0.7867029874544625, -0.28001246632830695, -0.29915905729550785, -0.33605279223736595, -0.5309148271703705, -0.4117318987652784, -0.11928626175940425, 0.12393506777629636, -0.8438846423447203, -0.7502165816138415, -0.601221932430501, 0.08854197637737274, -0.4427456635645564, -0.1439186646309637, -0.2651203645033101, 0.3265558478748668, 0.3993364083543898, 0.05724096541490646, -1.1064571886520325, -0.30489327219677054, -0.6119460651338634, -0.6068925730101596, 0.286624140525434, -0.6666674054937095, 0.520409214997148, 1.1076152254785123, -1.0388672037282995, 1.2437804490679472, -1.0419695453386482, 0.6628945226521474, -0.48929126877254747, -0.7419576519421174, -0.4499727106139844, -0.41038215535521894, 0.02253187984047919, 0.05809078413231997, -0.3699349588912462, 1.1363232240202983, -0.6139017019388283, -0.7863750180683673, -2.0437504779014417, 0.42281863714258966, 0.8724814284883773, 0.05188229918201685, -0.5746097432926225],
[0.3590566397517726, -0.9679632000784838, -1.1964984845870799, 0.27913996650337225, 1.4415425098247672, -0.8131699476871662, 1.460853775275687, -0.6637039060952288, 0.17142779942468245, -1.3874467370758057, -1.5752767985934384, -0.5153165790666141, -2.1832891930559133, 1.2372519087309621, -0.2715452310417435, 0.32060878770688034, -0.0894620391390913, -0.15812344143910542, 0.9840185683319965, -0.06990967418592885, 1.1535081862246588, -0.5797785902465308, -0.32782471103434785, 1.1053604062585225, 1.311181207062066, -0.5213057262997143, 1.0635450762434162, -1.2646659903697217, -0.219273908921501, -0.718704982637266, -0.8633286952606312, -1.4770863478531433, -0.8698014022744873, 0.5398700643386566, -1.307756290986073, -0.9483621320701094, -0.1903905919423043, 0.1353325034962697, -0.1803016348931695, -0.31596755790382725, 1.5643934409301257, -0.30128564984897865, -1.1919466093007958, 1.1037117745153266, 0.1775669973636147, 0.3366350782466352, 0.8256075168852046, -0.951676197570441, -0.13161892571411168, -0.6492222236816952, -0.8779760073198565, 0.3459153840824589, -1.6031537408347196, -0.9385738434351648, -0.8160596151582932, 0.09185927616019761, -1.255424898521567, 0.19817588971246372, -0.6008216563356837, 1.063022446321329, -0.2453106740104942, 1.1290901468120802, 0.02451963237127434, -0.2243530597597035, -1.2045277912330632, 0.7047932657044406, -2.32312833327813, 0.9203722297812974, 0.10034437556877164, 0.3079787320572713, -0.7495301316955896, -0.4454305144803322, -1.0028548068598055, -1.2571744456717, 0.19037522337348495, -0.03912275933359819, 0.27546986621680314, 0.2577608241658284, 0.4412639354495531, -0.8902407105737012, -0.9777327806685824, -0.2339680718416741, -0.31883054661536464, -1.2128131109255582, 0.6885991031056147, -1.3808893585929654, 0.30036465667865025, 0.2191679678108895, -1.6603476526103682, -0.2993733538739177, -0.91677837305105, -0.12391033074927248, -0.4239121973036063, -0.7651755608432358, 0.10013739135840022, -0.7804897849655872, -0.6439834412756037, -0.7127187702779622, -0.46862553580683486, -0.5625213687483435],
[0.6903320841015094, -0.31095603315832776, -0.026828290999010924, -2.050159187677592, -1.76928803739385, -1.79833751847746, -0.7067435592274256, -0.5502039528885373, -0.4514811144611471, -0.9829194659401186, -1.3934274875785648, 0.045894499585117716, -1.6285876910129773, -1.0328158595350065, -1.2894537429227781, 0.7825295782816706, 0.4448705262100229, 0.834001759409746, 0.06550625328213935, 0.4656997677636379, -0.978977426332039, -0.6966444976750448, -0.2875368785179078, -1.2269976228186592, -1.6705637271998586, -0.9713098514795209, -0.23742743892361098, 0.9926047779830176, 0.4091335053314244, -1.8487727341279216, -0.5641898609461082, -1.1595765463677896, -0.9637798050935883, -1.0360156332490382, -0.015438104720390098, 1.3192853213953777, -0.803227728935008, 0.38337889272225806, 0.7089734948192687, -0.7972310681985117, -1.0474342271681847, -0.9995031282420033, 1.6983659181248134, -0.5705375107208495, 1.8925113693970175, -0.14251491804962227, 0.23513651489342294, 0.40357910690613924, 1.548272243356866, 1.1401777693466149, -0.5067698372143237, -0.4965160898771517, -1.152772768207687, -0.3777110276945434, -1.4397061151552561, -0.28839150960449866, -0.9293418681391061, -1.049064654768923, -0.15527250109152269, -1.1252141355801077, -0.14340643599454256, -1.1937784573242018, 0.9843375139960384, -0.1147833648518532, -0.22861377901489804, -0.6792004376119696, 0.21209459817579443, -0.6831299052094327, -0.07794574319132976, -0.21901891298112391, -1.2601505245521705, 0.33995389957528865, -1.308725239470414, 0.41348681957752836, 0.10824429738139915, 0.686340971155909, -1.1237524661031157, -0.3265402422306244, -0.5674680449565819, 0.6983775980197682, -1.0434729591494165, -0.1696453919532736, -0.8670944755245292, -0.6430960016531878, -1.7511850930424884, 0.3552676166389358, -0.5973256604672719, -0.517508588645315, -0.1870433410046706, -0.07241757704085595, -0.845567320626877, -0.5260924219004682, -0.5719553811466557, -0.06011244742590265, -0.3121506642941211, -0.5854370544265526, -0.5527477718934617, -1.1612529063603934, -0.4607993661485691, -1.089129729871812],
[-1.191664289257003, 0.5206845179700442, -1.7449303134054444, -0.898968503274636, -0.3531461612403786, -1.5238147997444236, -0.413744849222869, 1.717815757019599, -0.7468786012221577, 0.5654174605881354, 0.773653807412771, -1.680276060971287, -0.05338056064459756, -0.20048083346969814, -0.38370331499015736, -0.3854399253496833, -0.39228855150291136, -0.5370897002129923, -0.9239954853626194, 0.08003147201648328, -0.37220181207772346, -0.38892297062589215, -0.43793240332813244, -0.5400568783556199, -0.586906912022777, -0.3921545786316332, -2.3636617777787725, -0.6260151912374764, -0.0992482526140335, -0.5796030225593259, -1.6431708104466627, 0.3346541152050096, 0.05410401776022741, 0.18535473471611605, -1.0339657051614046, -0.6607359979774562, -0.7668856349337607, -0.23208443679256988, -0.037512473654183295, -1.259455639683612, -0.858591904283531, -0.22115333103464818, 0.5253404135615398, -0.6938827540878258, -0.6278251610343578, -1.1292516384977178, -1.385425108587162, 0.02808700329431908, 0.5436022309964591, -0.44115592502798084, -0.42514536138612097, 0.9885474147372745, 0.4534841890113011, 0.6116230712781586, -1.117225987359645, -2.2031454590847184, 0.4468027214681553, -0.7473196311067682, -0.6343059645164157, -0.4796264681631169, -0.8223818289393418, -0.45235975990875843, 0.5774518698288275, -0.11289190023612988, -1.2242963479356328, -0.5030366600858799, -0.15030463009672665, 1.6445339337261746, 1.0539948205968015, -0.1932877752062845, 1.0669482062760243, -0.8422768540456446, -0.4790760649075809, -2.0883089876085843, -1.010203361697494, -0.30305534811325546, 0.271981629975474, 0.0690306257479111, -0.8263898737435472, -0.42459300410040923, -0.3624895713959657, -0.7343054612048677, -0.2765257961448053, -0.8821892805282472, -0.937277164565166, -0.335544900650003, 0.26235473331030873, -0.12666119353710842, -0.4491477749246137, -0.9226633914753911, -1.0089665378749528, -0.2568683069930255, -0.009717422113648868, 0.4825266396569784, 1.275565465693628, -2.4092741298897353, -0.4046117621433813, -1.153513157811323, -0.7029086755720572, -0.7289063204775151],
[-0.9049191297518097, -0.6808272570617384, -0.45300054426373954, -0.7934009640247012, -0.3639097854143078, 1.011882401472725, -1.3008352340973808, 0.042792427565075446, 1.2736096061632907, 0.4001237182576953, -0.3216021414870372, 0.36216558197107124, -0.4781530395430385, -0.664021629919345, -0.7830027466150993, -1.1395712060067764, -0.2377731642876441, -1.9029377832992271, 0.6255920588047336, 0.18867350259165225, 0.16561260263059216, 0.48124115502948683, -0.23014057108373248, -0.4209896250143864, -0.25447132653567295, 0.5155685142115608, -0.3494519397634759, 1.4360256688245958, -0.33171010630240644, 1.9436534039529512, 1.3472733007323794, 0.8166666655897021, -0.8245282674320755, -1.3634157407992293, -1.7934069339475254, 1.3695929002577856, -0.5076002199712327, -2.159890402168905, -1.5731929245874063, -0.45598026664693503, -0.2687181032342889, -0.1627662437703041, -0.7406740838822663, -0.45854290242668466, -1.477783001489427, -0.6811659363549644, 0.002754653556122188, -1.2383040947711235, -1.2419824254107417, 1.2545164192477787, -0.624175903152692, -0.4922258872115755, 0.15220464110027374, 0.41218138306697166, 0.5771993950231775, -0.5063251320414082, -0.5491385018325806, 1.7766208102844416, -0.40315583692968904, 0.5862245244925015, 0.19061487109594474, -0.6178935802583544, -1.9792883982579312, -0.1490087858217825, -1.1609597871137494, -0.023981328983824587, 0.08850639551246756, -0.20923405192868763, -1.1815800042866234, -0.009523910262880048, -0.02020736188740395, -0.7218479294791115, -0.48226897523855183, -1.1971722730036434, 1.9825737027979067, 0.7109443326373301, -2.7364793635144373, -0.6124138958801487, -0.38562606960071083, -0.3112472395863258, 0.06306883899178237, -0.2641466222034234, 1.613797755860016, -0.9933674169919375, -0.5536735794125495, -0.029362461591252234, -0.5484236737945871, 0.20964025926921365, 0.6088232661102546, -0.2844240625978427, 0.6416654457368416, 0.0823021433562246, 1.3770717459727855, 0.5606756599030454, 0.13672444337823508, -0.9059505879478726, 1.475278667723025, -0.6146309020766483, -0.8436236642165477, 1.839574171980982],
[-0.6476740800499504, 1.1330209238664735, 1.5601204335387187, -0.23233141304991467, -0.7298144875156919, 0.257329307135148, -0.16644922460007772, -1.3672393950276662, 0.08488218655100378, 0.8126731460266151, -2.1079473332866825, -1.4254441757336422, 0.29008992478136547, -0.5835425485570526, 0.11761792949498476, -0.541007244205104, -0.2155254837190186, -0.1589362757394502, -1.0663809593672375, 0.2214921738920254, -0.7849370528484807, 0.41462714734978284, -0.5220351299445901, -1.1113235777342616, -0.5111223530425565, -0.8538151445733975, 0.6623965613306082, -1.4906804474272115, 0.16476256274402123, -0.37224202087006, -0.5838574036807375, -0.3188392074793228, -1.2665468715167802, -0.25963156220352535, -0.5726377531712614, -1.1981371887967036, -1.0549999518758288, -0.774730992873124, -1.1942570352699187, 0.07128946392892496, -1.056995163985732, -0.16011842275553115, -0.8112166523376885, -1.1713484260572153, -1.1703799872549023, -1.694951642281242, -0.029152030346157074, 0.681516986167011, -0.7001146563901787, -1.2880827941396125, 0.19699834502531113, 1.1543004600555353, 0.15332194185961828, -0.8780263698931908, 1.0490773003204663, 1.2419430608058741, -0.8096351131931978, 0.12506571293328872, -0.16177181843313576, -0.23744753639956315, 0.14308562559955865, -0.5317137355960111, -1.409147615301889, -0.8039784701092754, -0.6726171782618255, 0.3041801140397076, -0.298568578752132, -1.2966492806019914, -0.5936032004309677, 0.061004959928336724, -0.8816215488494801, -0.6754953942585207, 0.04769083788463951, -0.9820011042659705, -0.056176280269409594, -0.605648435043769, -1.495408231984168, 0.11629067447898961, -0.48929232523911126, -0.4873252148633052, -0.3001368214409529, -0.46347938365679064, 0.11776192042853903, -1.6931370573140845, 0.5533227791790212, -1.4808095355627025, 0.008697555532044642, -0.37854672024867464, -0.3007259849061278, -0.32582370138625744, -0.2955489623129043, -0.6198463406229169, -0.5585587905230027, -0.6615048710034015, 0.15672748056630453, -0.5287288728186976, -1.1820856713122694, 1.242426270966589, -0.7096156270232469, 0.2257643794775502],
[-0.2303661789930384, -0.09077086166458717, -0.31512403258382676, 0.9113887061163446, -0.39663203902032973, -1.2428137265821475, -0.5647298178122976, -0.3205505620036086, -0.553543913269765, -0.13411180996077332, 0.7991262457488855, -1.4204790293656604, -0.9373649032338672, -0.8077464345818302, 1.790356558250238, -0.6864921709529422, 1.2322641947629533, -0.5324118390273087, 0.11932489025463372, -1.0085885907202559, -1.1269967891753154, 0.2172795667828162, -0.3366959103182517, 1.3367909476790698, -1.150508050941257, -0.718532991778009, -2.254101132768438, -1.627181100276145, -0.3395094412664274, -0.4565586767516835, 0.779134538059725, 0.9345491174263141, 0.9034781016748621, -1.2858036103263433, -0.10326874083652789, -0.8271560134489192, 0.49972273453501553, -0.535756661081187, -0.6681668804939835, 2.086381141326079, 0.14455273757771964, -0.3340977259790886, 0.23861905705344094, -0.898758548574181, -0.25603073509492846, -0.7994153588818036, 0.018813575373472, -0.5577394143468771, -0.11490205199058408, -0.6681347775401681, 1.6717733731130213, -0.42790158673611706, 0.20771374448414187, -0.23932132484767643, 0.04586303283278063, -0.5093424814338469, 0.8501455136735657, -0.37034519062914184, 0.053365243782426755, -0.910818167282387, -0.39188835459278665, 1.5250615856233392, 0.8846329667476965, -0.6226291626721036, 0.7373751832622021, -0.25450227865554315, 0.34971850587293574, -0.904486138622363, -0.1579447284351007, -0.5683190722287879, -0.5314299389475874, 0.1815568390662761, -1.1810216547597905, 0.9852883351363825, -0.15764322273894676, -0.5529063682144367, -0.4362194147379241, -0.19783050429078636, -2.206817002951882, 0.12379451462158715, -0.814774816172541, -0.09568363312757927, -0.2955847380346807, -1.2574477327142262, -0.3630346666950538, 0.3122950401432672, -1.1982835579846485, -0.573587203005087, -0.1108723625471986, 1.5154678829949495, -0.1892834951629432, -0.4281059696217166, -0.37743641323659927, 0.3299457397809266, -0.5060002542480746, -1.1272433810707452, -0.14754077641175034, -0.06782467314859399, 0.9557286903935633, -0.6609870195606495],
[-1.113604511658528, -0.9666177825655482, -0.5361093414755688, -1.0148141910163906, -1.6993207164992212, 0.21706145824056242, -0.615527132770004, -0.7579414768508473, -0.6569509737567807, -0.2765201001713938, -1.6525962692644327, -0.9805950857221485, -1.0001985977549712, -1.5897282385335398, -0.38150449059866764, -0.0959507036076121, -0.784368342397615, 0.38430156484432376, -1.296265705609527, -1.039904849154722, -1.2791622785326344, -0.6184192141239268, 0.06399751586279483, -1.2555240785591897, -1.3986933573792657, -1.347411246522717, -1.5063986096229072, -1.7813734119348346, 0.26808766454771965, -1.3534672882088263, -0.6437914050815999, -1.2099944566478535, -0.02509084912628526, -1.7107781521155858, -1.287854115282785, -1.7070409969992268, 0.07473513739786673, 0.7130319687954932, -0.3763373717198542, -0.7040194569760008, -1.5059592995742181, 0.3481253132052839, -1.4555080141816739, -0.9807032514966347, -2.2446318116365407, 0.08014940276326389, -0.5657266052856352, -1.1297217910707675, -0.9180918074274853, -1.080968344253295, -0.6439335472525659, -1.5311428969491134, -1.4408855458233716, -1.7827329221339323, -2.2104818650332843, -1.2471293413864992, -1.4116298678812862, -1.2602827368384648, -0.14205506730511383, -1.0691405893980184, 0.48898701910626197, -1.1322184029651516, -0.35365089285645546, -0.12860033875014962, -0.9234630523376604, 0.33554153667195613, -0.12203427860467786, -0.7868863654975358, -0.4610459312932261, 0.3569547457860745, 1.0246784412122303, -0.2537490284387023, 1.0125653338268523, -1.0646972695712669, -0.47048498138985473, -0.1992328239775618, -0.9425816741200638, -0.07903918762678551, -0.35080165450317513, -0.25694354859322033, 0.9129314238913501, -0.14335218809372727, -0.9343400678623377, 0.08750064251102316, 1.0483657949390524, 0.595754940804335, -1.786241548772903, -0.36924477517196935, 0.7687854026328694, 0.12708103423295428, -0.6674071861984232, 0.1738625216299319, -0.9256302292910842, -0.6186119877038738, -0.39647578467588, -0.27093754987797275, -2.015220078248069, -0.7705411079032978, -1.133175642762297, -0.866335933620928],
[-1.2595835812239824, 0.12777336133291453, -0.543200965235173, -1.4174111311711677, -0.5244043059639768, -0.7294840074602503, -1.0400643999070815, -1.9934491651415125, -0.0266062625386022, -1.5304128417062923, 1.2262080097328107, -1.4679902831150473, 0.6779194361984907, -1.1625740484779747, -2.094816077055244, -0.22884489683023126, -1.2508095311867617, -1.1199878776259073, -0.9443136643392542, -0.7175137007689689, -0.7798789987560837, 1.132882088530628, -0.24471763762409837, -1.4751166585993616, 0.25631016923450034, -0.33950577664508214, -1.5782785490255016, -0.4389705091187789, 0.39557592735646097, -0.9980437271514649, 0.11958809009959212, 0.29583276988101653, 0.150984639039058, 1.0858337875598225, -0.48004137141089753, -0.08694354594750878, 0.6357706369388094, -0.2518455634755256, 0.24395280137076322, -2.2780659211682144, -0.45931037187272, -0.0035570197069068154, -0.19518444573935326, 0.6747178338663362, -1.529454132934125, -1.3298633210821746, 0.7841247043477709, -0.7292539334132713, -0.2783803895193682, -0.0014726046068078633, -1.2961715968367196, -2.5276437138233474, 0.3242694530536047, 1.7121179983695878, -1.361219839718873, -1.0312544366282739, -2.436734568577493, -0.6324161740784012, -0.07539036953396083, -0.41822375557621166, 0.0262657845493451, -1.9672401481586368, -0.870198485073526, -0.3172571811636531, 0.3551413904495821, 0.087631696563924, 0.24308189058409055, -2.1023371246753286, -1.8013734699919743, -0.5833380118328901, -1.1580741369349727, -1.244066364601656, 0.6496701421747391, 0.907129653221734, -0.10954462279917003, 0.2032285314605574, 0.19223991466700027, -1.5510047724165865, -1.090040068493481, -0.6373367377676943, -0.42047908023176606, -0.7446066097128065, -0.4942038090791298, -1.0523549441011768, -1.4103164158757622, -0.24119623504380794, 1.4298955222425678, -0.5395579197619197, 0.07198137384880593, -1.345249654232424, 1.0611634306245417, -0.41160900060818006, -0.6720924408353188, -1.160599766206942, -0.4854520463217883, 0.012075548100965044, -0.768629094202664, -0.5000606749547798, 0.5720209481581245, -0.7386719055931114]]