[[0.09855561642316722, 0.03648628704055737, -0.24597490320638157, -0.3788067613894811, -0.35904727562079297, 0.07137080438888176, 0.4774572546394713, 0.023869115761799443, -0.13482325481525564, -0.2610507448152698, -0.20073557645572201, -0.4241462303868708, -0.12700200216273358, -0.12798181981926404, -0.00972443663477597, -0.3366688305501254, 0.34157491654394123, -0.44943546427470915, -0.08628502694934916, -0.17765843126641187, -0.21818000990168016, -0.3408095666281671, -0.23539331328156507, 0.24668414845542172, -0.4553611779194281, -0.11134056881732081, 0.4647417985430071, 0.22456435966342939, 0.4086437771020075, 0.016280547570153247, -0.03032527733860917, -0.10278327670954036, 0.42219931608156996, -0.4798272600446053, 0.45425521341551794, 0.25508280075825834, 0.3596979195928559, -0.315142512614897, -0.3104528374760399, -0.059468618652166974, -0.24236371104714702, 0.29576691949038153, -0.1586067878690437, -0.21951801159490328, 0.19434396435320667, 0.27202780748303634, -0.28752902391699015, 0.24502753663523616, -0.44774807029176533, -0.46925531942647186, -0.4536929433879956, 0.22662216514491412, 0.18045828920027931, -0.30863101632835166, -0.3528958671532746, -0.12889318420804666, -0.25611426033136986, 0.013103014706179392, 0.2045666881326164, -0.29965499905826687, 0.4673997245407881, -0.43479286074202544, 0.05793977549285221, 0.12600497302413038, 0.15092192808679558, -0.07230966331723629, 0.4294553201446007, 0.02895623832577859, -0.15656987958683294, 0.4505541322013519, -0.039724412466581614, -0.2587685972226357, -0.28578983286849774, 0.2059812499707338, 0.22315316993582987, 0.2756122476798746, -0.26479766498978113, 0.02307833441243789, -0.04051175833877303, 0.4295387766263243, 0.07335043577173139, -0.38119722110806475, -0.3150020622855033, -0.16849682354318993, 0.07888379727031479, 0.15873236721815423, -0.24757612793680903, -0.17736277755758564, -0.33279936424559964, 0.16936261927666055, 0.4048279689479123, -0.04473491618614577, -0.34873706480687233, -0.0013642371484596668, 0.11163007991142007, -0.31662881348774785, 0.05062711959730559, 0.22068431332380525, -0.2522489512272435, -0.32087359486297806, 0.32231761011295623, -0.08432232236487283, 0.3540646502213404, -0.12789088287044253, -0.17035166125381174, -0.4893881366881573, -0.15106336335438972, 0.3119605599538168, -0.2857147126767972, -0.48526518296794735, 0.42939401661002535, 0.09433525609268965, 0.30049276128804936, 0.48517043774302326, -0.13871104076862045, -0.24014624187384007, 0.06597300609071642, -0.12578173045998517, 0.03821108251016285, 0.4629126788977332, 0.2532336230028444, 0.056916757427310734, 0.603224247884118, -0.19310099526334892, 0.5966391530366866, 0.2498133438943361, -0.7037828259972481, -0.13048780781832725, -0.17704274616981713, -0.3541485847786135, -0.35661843411389593, 0.2886614427919499, 0.026688493173761638, 0.048169122786518054, -0.4158473864282063, 0.12312715676047817, 0.09292576311810051, 0.44513783240285304, -0.36857661735107466, -0.39065648680385434, -0.13905593010588632, 0.3849491179325575, 0.4402781793422108, 0.281674924564384, 0.3099623244647257, -0.20082745262277824, -0.05121244604617348, 0.593151190486313, 0.07422322991152952, 0.1216970085771718, 0.23892369552025924, 0.08855403614601959, 0.23029673367936193, -0.5702781044219636, -0.3997297287513143, -0.49464323100601976, -0.4138362436827593, -0.5132497740970544, -0.33964480002365854, -0.1814208453325614, -0.3546864066918372, -0.9283304613429608, -0.4989782316299668, -0.6954836015669645, -0.4433414522410474, -0.4210228085329635, 0.4170811906141907, -0.2682540541409554, -0.43199235361010013, -0.40566823474858166, -0.10260226905132608, 0.3022258091120914, 0.05036144762729539, 0.6172053741031128, 0.489812645598175, 0.9347449271784631, 0.0866762059317785, -0.20884815966733167, 0.3557251711878638, 0.04611670261957189, -0.4486109349112771, 0.15515303783303655, 0.10296368463184463, -0.19802043208663642, -0.9810435419869536, -0.8564195796809793, -0.7883647290733014, -0.4105969173909517, -0.6529387731657896, -0.3129785121323013, -0.9576492803343964, -0.39272761620339325, -0.21147292656507696, 0.28440251387956267, 0.12898240550578985, 0.3539780074427323, 0.4351511260227312, 0.04425611350574502, 0.4600473578549146, -0.24617212781702066, 0.413486641907129, 0.6695590188206607, 0.525748624464993, -0.07183396177533456, -0.0429127581192621, 0.6516489038591935, -0.1457304710416731, -0.6148330846544553, -0.10414048621144455, 0.6222148438318671, -0.021029463577324263, -0.715187029424478, -0.042375143697181955, -0.13985559662016284, -0.4758964977033676, -0.25624079915972303, -0.7495680406358719, -0.9502449749831444, -0.7124953142392669, -0.8216087056063486, -0.7233157758371397, 0.23920947549924115, 0.45543336459659367, -0.32725656599819153, 0.1581329565948652, 0.3627275024383251, 0.32749272514109506, -0.06157458736764902, 0.28246047664309337, 0.22333827196119202, 0.3898702999155844, 0.4352321570427894, -0.34219059016195885, 0.3423090050401685, -0.013467279748609284, 0.14007190032049088, 0.4473611471526605, 0.6031532585152812, 1.1749845823125422, 0.8005452691928534, -0.4303516600591073, -0.339242244818768, -0.4375607443613919, -0.6056784953221479, -0.5876947662255682, -0.4721973754571067, -0.8081579688807744, -0.02602823699628864, -0.4066812683793192, 0.30780707560836607, -0.29492183251442383, -0.025010518892727287, 0.10948908735144545, -0.2828154609066589, 0.10142021521215702, 0.4310339552627944, 0.23032765627497026, 0.7123763495356892, 0.38383979698125004, -0.16912802340872488, 0.4533181634888651, -0.06897472859756719, 0.0781634876762522, 0.15055040432743974, 0.7239987399483356, 1.6099415770859824, 0.5972428507482357, 0.31465373322786855, -0.325229054476301, -0.5283968834338852, -1.0544667991475143, -0.5678553579133963, -0.6701356052564812, -0.18289345923739944, -0.32087207236718623, -0.13402178257410835, 0.06028534119105888, 0.35343881337468225, -0.41007540971511075, -0.26919445913099316, -0.4293437755750811, -0.3454542316896914, 0.22924371866560764, 0.20586037463646709, 0.29324442099698517, 0.20260876759341384, -0.35351389729087374, 0.19393920703040318, -0.24355513650238453, -0.28893056534294104, -0.1555293028011698, 0.28495199438902796, 0.5385668699921062, 0.9182731115209909, 0.9673037041485766, 0.38000056472625116, -0.17773050479329439, -0.6105312718185755, -0.08303617789466672, -1.0571862561125158, -0.8637413054624087, -0.6781971004844367, -0.4358465403564363, -0.040169172588870226, -0.03198068191204087, -0.3890759006941892, -0.0016242646227825363, 0.06150837560523905, 0.1721032477860101, -0.06557393844726898, -0.23662264329197047, -0.20198497273610316, -0.04453899722278371, -0.2619569974645899, -0.14663465558876762, -0.0608854222365047, -0.2156969692710964, -0.9391742829368852, -0.1308436803008275, -0.22356726306412406, 0.797827751188402, 0.04378598475319114, 0.055908530941714184, -0.46516189494906335, -0.03610912507066203, 0.21652403449714988, 0.26788647866824156, -0.6109485131053212, -0.900886668635542, -0.5670798738245983, -0.12226478813227337, -0.45082333135582453, -0.3447636474507792, -0.10000544011208623, 0.40237253848777915, 0.03877021808844448, 0.42751448969913525, 0.07220911256149028, 0.1622879395287633, -0.3222081341964708, -0.06601262350874332, -0.6263688670324095, -0.4147739751352713, -0.4617257100500461, -0.4332622980581445, -0.2872900194256398, 0.423321880722662, 0.0028940328451689972, 0.6670999116822925, -0.12546420178317108, -0.445069646129404, -0.15276428807126297, -0.2806604083537084, 0.1595081814547448, -0.2833822424628297, -0.6633398218612855, -0.015152491168391853, 0.040092026478324945, -0.6493232387654733, -0.36903976878155637, -0.03311673818726687, -0.32190853293136634, 0.34608077334191195, -0.39261497478592017, 0.25691377723913267, -0.3766420014328439, -0.3036687050165143, 0.16365453417818962, -0.6974757395362223, -0.16881447538532615, -0.8400923709783366, -0.8203455065588965, -1.0056976723994886, -0.5206552945277769, 0.2511592905446649, -0.23561748823263282, -0.015882669965148245, -0.28012652875338484, -0.4846965298956084, -0.4296582409346339, -0.18318324202207983, -0.23419039595687968, -0.35546565927261825, -0.5825439216687665, -0.7678738700134243, 0.054038820421173146, 0.22201563410527742, 0.7262102060363544, -0.06436432683283133, 0.4970270536537592, -0.4666240961170094, -0.225362583513393, -0.2610542171262818, 0.09733396869775755, -0.017139553969895853, 0.16418433579984043, -0.8750242967757005, -0.1398362746442387, -0.5427257708694312, -0.8758312128425755, -0.4720023660693801, 0.42679686896087976, -0.37884095727914696, 0.007675584250605444, -0.25081494324416476, -0.6765814899001726, 0.4383436462825654, 0.34575845397580446, -0.48160029155718465, 0.2831099406016307, -0.37511601934065997, -0.19992511801364218, 0.42588713805282113, -0.24929547409514258, -0.027760303748939764, 0.6639771959522942, 0.6378442069834768, -0.19411129295028937, 0.2096086845122451, -0.32780237557712827, -0.2667385531240417, 0.1058425532880551, 0.2590922052205675, -0.5801753919159752, -0.3173394503294112, -0.4386571331081557, 0.05172385547680057, -0.44436002859103857, -0.13058971417576967, 0.3097031921551531, 0.24231688123905282, -0.37898615448335193, 0.016205619892826827, -0.5017478963943021, -0.3083838830915353, -0.2845386509967216, -0.5657543050750834, -0.6733343677165552, 0.12696360625690045, -0.5248740666926927, 0.8528196600425214, 0.9111621460285992, 0.5917368657283874, 0.831995185368489, 0.2928477727071366, 0.21196114287316267, 0.26786218316521593, -0.019955820733648745, 0.12158300738506984, -0.17556398346470495, 0.13011630716098624, -0.5366061700092127, -0.6889387565814928, -0.5071989172997561, 0.17093430430528309, -0.35882111400920486, -0.05370125909899667, -0.03976301682433789, -0.15078020294319633, -0.7407175161047371, -0.6932696489256182, 0.08076539748102939, -0.350225019647185, -0.523668460511739, -0.4798900545584867, -0.6122661305456231, -0.1528816891415294, 0.03522088107186557, 0.7155744457066588, 0.8963814511961341, 0.7505431464402283, 0.9271182659173308, 0.32261931395476995, 0.47957188772928777, 0.021130281176782756, 0.004465765384550244, 0.0032758123817909603, 0.2639538379812314, -0.007318007998605687, -0.100307832144951, 0.0059871488619222075, -0.5892143972196328, -0.3733931695759525, -0.13495691218309333, -0.22978374747249888, -0.5524031222343568, -0.15123867632295668, -0.04895303764462751, -0.18215342989444763, -0.8836218479529739, -0.34156099021247405, -1.1029277291198982, -0.582452680986178, -0.4411591716454353, 0.12133694037508536, 0.6720364925944639, 0.5936834608263434, 0.4674700059290358, 0.6445499226896714, 0.3938542572672267, -0.38368528669522234, 0.04279198612135438, 0.29242075639490084, 0.33989167660770087, 0.40065566275520764, 0.050021450055008555, 0.20897466041930612, -0.2592862733698174, -0.4727732735662729, -0.3341027325392813, -0.31618871157823036, -0.9443077573775293, -0.5205039602577867, -0.7276711744377095, 0.055527097110516885, -0.574124627214635, -0.9193726568630016, -0.5777486296304241, -0.5332315610258661, -0.4672258524994656, -0.18115661411410933, 0.08283460621928566, 0.24965010120429262, -0.26131113750232454, 0.12716819708602967, 1.217267144758982, 1.1306981881822173, 0.04291055612251607, 0.35660272575196056, 0.3470616587469226, 0.21257507002797787, 0.42257936318110256, -0.294347614596125, -0.4201288138369359, -0.22539384726662942, -0.4035570713962597, 0.3524121445542996, -0.181080495269144, -0.5319579130562271, 0.06732232615354543, -0.3139832463259031, -0.5522361103864301, -0.47420595869463517, -0.3870283631667672, -0.41016602022102805, 0.3205737908330652, -0.15485280298267567, -0.02148176727758387, 0.014834422970913648, 0.22364593449277287, 0.4387420066959271, -0.01804241836978647, 0.24138519085733234, 0.3099680292334004, 0.1919350669594283, -0.07713126205363137, 0.45354668564605094, 0.35125986939421916, -0.13317619723808716, 0.3448644492647486, 0.1334358553321441, 0.11069402299452773, 0.5208011197711159, 0.2801038388793571, 0.6214290639116579, 0.09259717073879842, -0.14752346458391705, -0.3974969559702485, -1.1226692590822038, -0.12433734710360718, 0.2531925878394854, 0.13489857762104002, -0.06750467161679856, -0.0024393005572417225, 0.1273895208489661, -0.43667941658688136, -0.882384653710487, 0.08872952222254334, -0.10770377738292602, -0.23657590194386904, 0.46740624777565404, 0.664391180169508, -0.01693734809334798, -0.46622277468660417, -0.4377815736497816, -0.4652359058918247, 0.1602668584152355, -0.10748298935560578, -0.34027895146845044, -0.19469527799198194, -0.033037152769924735, 0.1927127733071756, 0.2276432979121212, 0.24727715500008718, 0.1053719582366636, -0.15129854353392308, -0.1497219507245558, -0.5170945229355842, 0.12433035309342344, -0.26593630246937905, -0.5930716865911667, -0.38742816467666363, -0.09404221991640217, -0.06853818646843281, -0.5360354767728258, -0.2920830625013519, 0.4821852519750504, 0.41886757223717713, -0.0663730116621893, -0.2531143482859058, 0.1794969642605393, 0.232293215824063, -0.2074441972201303, -0.014604933208553867, -0.1085652083091524, -0.4102403844250099, -0.267921338396389, -0.43592506153804444, -0.32102687256031165, -0.11880198988805571, -0.21322403873662946, 0.4976972517248728, 0.015226705470579431, 0.6826459186245323, -0.5463629444586603, 0.20928420750489443, -0.3199173829342204, -0.3013984245225126, -0.7193120539391458, -0.7466779442929918, -1.1197335894017268, -0.4604484731699291, 0.211686034696814, -0.5253949045946686, 0.3223368048761146, -0.13764679737824848, -0.48586452019935455, -0.23635917721873517, 0.035660089618605194, -0.6321884949122814, 0.25800343995078134, -0.2602289769761707, -0.3934928762227314, -0.3238230589475912, 0.050007235395394534, 0.2793085864719368, 0.27462755977666414, 0.5004974217232719, 0.5518408224435126, -0.3309814422365153, 0.1875019813874631, 0.3448317918854779, 0.014215789354159286, 0.6959967690584011, -0.40792861332265845, -0.272469498295652, -0.14420159442459915, -0.5648568512548845, -0.030044415544235932, 0.3732821149424676, 0.20462879325048502, 0.26839242234447613, 0.15349364727268727, -0.007314702177962667, -0.7927228699313376, -0.21206620565768455, -0.2610940617477212, -0.5614586763903168, -0.27028980853076073, 0.12304519800048493, 0.29976855509339617, 0.2007723580940554, -0.401426446027352, -0.3218621500221186, 0.37139055613594235, 0.5166405425428011, 0.5214728059974418, 0.311454940775726, 0.14612422301240288, 0.5219410252947815, 0.2441184297028211, 0.3291694466751537, -0.45838158438322624, -0.3224011340859166, -0.073495378093139, 0.18199525821309095, 0.28198419843121775, -0.23803166638980622, -0.294046183350322, -0.5061083479594223, -0.34836029840721133, -0.29069957643897204, -0.31361354352780396, 0.10995281206687482, -0.29557287151593115, -0.37345367511578725, -0.5361566125692406, 0.4094480956119671, 0.19427082368846085, -0.09684018865688328, 0.4455719088734107, -0.5049889117771674, 0.36470275440899347, 0.4425120310587776, -0.3443724594596416, -0.20618079531116176, 0.07833356889891226, 0.050836871652788884, 0.3421995334265416, -0.11429427641409663, -0.044549701932010924, 0.3141601842632323, 0.5818248316642203, 0.028026970365880446, 0.06954978438701685, -0.04019380990110751, -0.11736560415579375, 0.182231602847198, -0.12903260888571427, -0.551415226643909, -0.044850865102412575, -0.39492271445571825, -0.5460722964374859, -0.12621798759134295, 0.426213781487375, -0.23324777646859407, -0.27083756378205437, -0.4849506434418578, -0.5062344831891592, 0.4849659890264648, 0.3889909352306564, 0.00585679058163901, 0.1774836841656424, -0.05911184015839763, 0.2155332896441129, -0.05284120954254919, -0.026342210082206413, -0.4396150885743175, 0.33790785237953475, -0.16100471645650327, -0.5390950699492237, -0.32571906846785526, 0.1614174021389526, -0.17710843506601442, 0.16366963600429493, 0.4369206638091577, -0.05176680105317269, -0.15777788111430022, -0.5292631432782098, -0.478083275314679, -0.4499567453361234, 0.42020251971018796, 0.2875181954767852, 0.07175083244506511, -0.17706277242234533, -0.5006171153784326, 0.31014105326406005, -0.18892257003098764, -0.25416195039781514, 0.2614683459714401, -0.24326110729958159, 0.25270159132294046, 0.32644523239050777, 0.26146965569701297, 0.23247978292324992, 0.026164643271178324, -0.049925634418886575, 0.2889731772813602, -0.2761143802460449, -0.2999103835518981, 0.01139130723257542, 0.022339926627577854, -0.34341085444202024, -0.34559114274589753, 0.41578007788022603, -0.3865931104969724, 0.4239755029278789, 0.30697898390060674, 0.23896712829815464, 0.1042994640804078, -0.07730408126917034, -0.2541189293576819, 0.3345482769923911, 0.1509263207420444],
[0.46761954722844873, -0.4620045240623983, 0.4283394345372568, -0.16852676992274723, 0.10132208737132904, -0.40588633859263507, -0.23754301750203627, 0.06757398329213744, -0.40507965457195555, 0.21222046475819895, 0.059070773256838446, 0.15687007144497694, 0.1305065953282598, -0.027973887405881744, -0.35583028599667715, -0.35994823467292364, -0.014489196001374419, -0.326849486016537, -0.2135225253403869, 0.2342904542978375, 0.46972092885442335, 0.17769219307556366, -0.106149807296589, -0.26383007827441224, -0.241746408338621, 0.01933955665965355, 0.4571895817133644, -0.49077140613642295, 0.31217464678293844, -0.12310931099603455, -0.4911633114939113, -0.20786940735627607, 0.336859459069901, 0.38695590202501867, 0.28549527287615256, 0.1508942285114031, 0.44933519529758004, -0.32800297237627557, -0.24606928543106105, 0.263644837368594, -0.13709198091986877, 0.30224151758151324, 0.036580041835614495, -0.1522371927869923, -0.1002508129611607, 0.26434261830090655, 0.3502539892544279, -0.4794661122265941, 0.34245243396645236, 0.3423476600911928, 0.11335023745856476, -0.10158131762249865, -0.23349962515081407, 0.46077539582663213, 0.12548471244368528, -0.06352230303300897, 0.24885842222217514, 0.3003270577412986, -0.18639358470058723, 0.10364448955299875, 0.1373057027090068, -0.29935056168543833, -0.43544188068629597, -0.44573820649118745, -0.026682232868883264, -0.11959176455168864, 0.2542083054853472, 0.06535002677085704, -0.25362539223623753, 0.24067396554501877, 0.5128834951794242, 0.3242689690665075, -0.3788148205757561, 0.43578654136668327, 0.4686719275930948, 0.41668466608822324, -0.1745034379037836, -0.15420403688573978, 0.18883444076053288, 0.40873060938740113, -0.16341071854205008, 0.048983135383282556, -0.034793163991342635, 0.08288499322090644, 0.4820654484867139, -0.21099755568794681, 0.4833870018378326, 0.4088216806377862, -0.067504150087906, 0.20044527335049234, 0.015376770007840088, 0.18560407904654452, -0.30736861126061704, -0.5932915169757502, -0.2742965374085279, 0.11631526344134697, -0.5246015238534171, -0.1003279219117864, 0.4222610010046437, 0.601028630542256, 0.16169160332761356, -0.0697211841395709, 0.14772037588791667, 0.8945318877798552, 0.6528016285385514, 0.4531082428145917, 0.6476456619261813, 0.5383626977903593, -0.15508584471545447, -0.31941496495594013, -0.23712573956034555, 0.14291155900915492, -0.08926202061794579, -0.5001997738404682, -0.002031106728903324, -0.056891713267840545, 0.2206754564050933, -0.3047388739333899, -0.28537034677904327, -0.09368200209799721, -0.34679248988689915, -0.0716914190306871, -0.4290810111916307, -0.8619316530023796, 0.05749416622814917, -0.9131684970064105, -0.6527747465998308, -0.3943673973412056, -0.20698509932914302, 0.2454200959401896, 0.5337606156406633, 0.1261674184835421, 0.8459002456736694, 0.8994633356709801, 0.6355271061008618, 0.17019752083593634, 0.2606986441052942, -0.5876744193261784, -0.26971153218156785, 0.34888676148711567, -0.47137840155838234, 0.07582544937340281, -0.35127574860224664, -0.025152210062586246, -0.08787398709202233, -0.4436173224515095, -0.06403347132893543, -0.3050454973722159, 0.06945217944077955, -0.040848682616286956, -0.6257224893886462, -0.6545869013259381, -0.5307027296866361, -0.1696831996687896, -0.9652686261235276, -0.639777680011935, -0.2691977516406075, 0.2071753481475237, 0.7984336916808562, 1.0176350635051106, 0.2297152713338621, 0.03569587455018301, 0.4212286855544569, -0.5226845929577261, -0.19005400742438333, 0.0576211722635123, 0.024420572717992563, -0.39481228283936776, 0.36978635552447275, 0.27581211268032296, -0.3995825806773758, -0.0938484586157486, -0.25977463055837313, 0.24129236560611378, -0.01980513240165736, -0.21633207062032903, 0.16945809906098078, -0.49136092529809733, -0.5385324761842373, -0.6109183907957368, -0.3357241306378364, -0.044371297039145066, -0.5076715899631247, 0.3452449156332145, -0.10736161220673844, 0.3458735753446525, -0.18942740868492502, 0.14719320140694606, -0.724115540679145, -0.45910226300594187, -0.10586005002606069, 0.022496120170171226, -0.529240731828999, -0.18351536707207206, -0.16516059092767868, -0.20320923495999496, -0.1855959421209532, -0.0671608621701613, -0.2679136131253854, 0.09319928003580905, 0.15245360302476413, 0.21717680030065412, 0.10319760157517384, 0.09982198420616119, 0.17105151042271338, -0.05247167278815311, -0.3359297796862029, -0.4773244277097752, -0.12010011722432978, -0.25060211662970416, 0.20566076032160918, 0.4804122064955097, -0.1928993064755726, -0.05918994411002327, -0.57172122898988, -0.5979938036831454, -0.8786472035817126, -1.0053214124453667, -0.12156888359884725, -0.47204747096261607, 0.006592316270826696, -0.038801824576383294, 0.23946658149092756, 0.060330416693170734, -0.18008491121564632, -0.4725920009579889, 0.3956483044934595, 0.11502780416051293, -0.4587261379567605, 0.06208758824738238, 0.04881917580214183, -0.12059814540590401, -0.8307547713460357, -0.9034632282678952, -1.259843489198863, -0.803602172581335, -0.8190123762726857, 0.3091340254038302, -0.3135228746695964, 0.14580603294131084, 0.45935237369921983, -0.3531430844944094, -0.44003832399431103, -0.8654172207717551, -1.3960540607006602, -0.4060008818163054, -0.34609664826676567, -0.4140136214670335, -0.544767166684068, 0.106620329627917, 0.12709391870287054, 0.2732953430642521, 0.16746026916700207, 0.40816241247465507, -0.4753548790893532, 0.11761435034619265, 0.18717835228680496, -0.268120466824301, -0.958659018291796, -0.3674320469959143, -0.5468288867484316, -1.2854818267601817, -0.6568153234309733, -0.8070990075107864, -0.09051101430904844, -0.4887057043285989, -0.0721956528409417, 0.255177434331526, 0.3497627456349812, 0.24982536658800594, -0.5662704222199393, -0.8729876397624944, -1.048853799530626, -1.1964709681718078, -0.395705814836198, -0.5802283222876539, -0.08250910964208685, -0.5330526420862972, 0.3534019685186519, 0.46183920949922774, -0.08448422852432695, -0.22729560516216826, -0.3376109153478238, -0.49309869422948316, -0.014112829888510712, -0.6981990029052255, -0.789206943698075, -0.4742539372280177, -0.5213600324019251, -0.6974904722510381, -1.445803437006951, -0.21969205357396265, 0.28079998869588463, 0.25247017492455587, 0.003476908960719261, 0.2917553765084875, 0.3708561168218141, 0.0467397618224728, -1.1292812164210768, -1.474389196741339, -0.5466765946103764, -0.7356410199905639, -0.9095823336246862, -0.1954420821370923, -0.500325138368541, 0.14840940220453167, 0.09484561137555633, 0.21356987035764347, -0.47377258267066963, -0.39821159072052553, -0.33708850684000513, -0.36224804308662345, -0.0027247754217030106, -0.5239116708901818, -0.7809194556397195, -0.3604170970934905, -0.7463447399806011, -0.39820063183783544, 0.3636075452219794, 0.09029538204380708, 0.5422279242660328, -0.19853335753932067, 0.382723935371307, 0.25467298782988584, -0.11673525617474709, -0.24527521924667292, -0.64227257375223, -0.8274967663973671, -0.8185969584424229, -0.9305503257206733, -0.6551811482911721, -0.8808460330339861, -0.8312388488566963, -0.37763566314973757, -0.09782680163331264, -0.2839220199548475, -0.02326498490802169, -0.5098398138062465, -0.1799382587848486, -0.4334114079934064, -0.5574825538763346, -0.6719758859020828, -0.6666439009701353, -0.47022432486262233, -0.01897299102526344, -0.2518834118767097, 0.8375243094725983, 0.3576860259649066, -0.04995292695611392, -0.14590689733963205, 0.14074473247698144, 0.32766496312152427, -0.30001552051422087, -0.028118763069600653, 0.25694899198060595, -0.9403590041185055, 0.053618259305130034, -0.08442114738692884, -0.7835263280773043, -0.38454603558781136, -0.3093905212667627, -0.146881516571065, 0.35016776620519935, 0.4226476990309697, 0.31190315876353175, -0.22081050443687658, 0.12173190190962728, -0.3677195512328211, -0.43779649971471957, -0.4681129738346364, -0.6063959086310207, -0.570982392829282, -0.28928828580493204, 0.26278067290079266, 1.2402857584377418, 0.13965481574442248, -0.06676407295021632, 0.1944157849703569, -0.22483759371612766, -0.0997660416506723, -0.3944421823834573, -0.020429775074559967, -0.3947665713218551, 0.152824674866726, 0.1560171717329275, 0.03286281095314246, -0.49094387015374596, -0.08687534880989746, -0.9371027667489494, -0.3711144474176774, -0.1627443343034276, 0.10662860423506211, 0.1295244582917901, -0.1803745209208126, -0.3267722386854653, -0.20287063612048892, 0.22004935797108222, -0.5950239343954367, -0.9131284113397308, -0.6902439243558326, -0.4108401395428966, 0.3671474464864278, 1.0174467592099032, 0.1006909877837032, -1.0548523268387948, -0.38248425532504216, 0.06610508387450649, 0.09772421956773475, -0.5603016995182281, -0.1208981581363286, 0.12259074101415714, 0.008490395152906376, 0.6055592365694452, 0.17439041262887944, -0.10406783520419557, -0.7801463414307651, -0.40178469908778286, -0.16339047071331608, 0.36224840649383344, 0.44273653932306506, -0.07030565666343584, 0.1738762183274994, 0.4384663830062032, 0.41526667834521197, -0.3510312818517207, -0.10204059590590599, -1.182778326875514, -1.203713312019488, 0.08111831804578871, 0.9068810657024128, 1.2472029503792843, 0.5546343893421393, -0.039196530006753265, 0.3487580503139794, -0.4382723845565054, -0.3988757914125731, -0.005781214961244334, 0.42894798384973276, -0.07195466102031718, 0.21383023657257813, 0.11985633504106043, 0.15939252949660976, -0.4184434525410755, -0.22524699774338, -0.03087431895797972, -0.5712496212966526, -0.1368570658555329, 0.23143834785633496, 0.21700135308653612, 0.31529823497542103, -0.19613906028373804, 0.0652772951978932, -0.17120965964891102, -0.5218073303702939, -0.8482759792987995, -0.9915322122415919, -0.09011028677934424, -0.14184841299065482, 0.8909842154895818, 0.5777601108285654, 0.8779815104039735, 0.1147339488005868, 0.136232059151732, -0.009850224861999216, -0.3720934051116564, -0.48011757808493405, 0.6483897804895749, -0.06612628566162519, 0.40383672195598774, -0.07992684822694804, -0.5066828697613667, -0.8542236737107376, -0.14929668106238017, -0.7707906962348331, 0.14846825994073992, 0.40857263274136113, -0.15740709840584927, -0.40232652085858805, 0.17396666139456426, 0.05826999291299021, 0.1193504467235356, -0.24135111237327006, -0.17827945279626703, -0.12310531718773646, -0.3851569914903669, -0.06915508050884057, 0.2831662981454558, 0.9060111621553298, 0.8811785192817705, 0.4800430320020945, 0.7119756797145634, -0.20732429533721328, -0.31203919270731034, 0.3697162676268316, -0.1261677181966607, 0.2789004954413937, -0.21487893308479494, 0.5048242505582045, -0.8654135655900345, -0.3288315733095553, -0.33584909692033343, -0.42590546523218914, 0.03942763481507895, 0.3913379354351252, -0.12393980960030725, 0.4210684870446189, -0.325543510741767, -0.2845294322662394, -0.3786975397094059, -0.4372525446628306, -0.28195074300370254, -0.2577340626671849, -0.9691947327056439, 0.10645917416320122, -0.28668708657155917, 0.13946586862589866, 0.10171829965836796, 0.21316283536895156, 1.0052332460200113, 0.0796475365381453, -0.05419990618096908, -0.45315873025280545, 0.6905350650634775, 0.7699128505984073, 0.14602222749964566, -0.3131208808897599, -1.021445961180396, -0.28393309011739004, -0.8464724269254696, -0.043170181843200504, 0.4515615213682798, 0.4509010552092113, 0.03800304926478072, -0.05928496850579998, -0.2148740603596136, -0.20295786833559906, -0.3446997661648473, -0.35751748606337863, -0.3197828359835603, 0.024483699985049744, -0.3632651444847482, -0.42804840562978486, -0.7514994966440107, 0.20527290011718036, 0.3429152791866132, -0.11178513805470072, -0.06410468066395252, -0.010461440281884381, -0.6391668422704079, -0.28965665212870256, 0.053817361721575876, 0.0029087111947105476, -0.25427687236439267, -0.6626746790820179, -0.014231783748896653, 0.05544128815344541, -0.1412070045129254, -0.5143865178077854, -0.570588404364672, -0.1766356164451229, 0.2793237267932572, 0.1689204949863337, 0.4457012440479977, -0.0190182666433769, -0.0963896610346638, -0.6033869117731716, -0.37526817973969173, -0.8521061404991022, -0.6380804195517068, -0.31211492558713183, -0.6663000839745645, 0.08494267225297492, -0.16347971100177225, 0.3112767759183334, 0.8500407934911703, 0.16622211197731487, -0.20544649920460184, -0.3520798062802612, 0.5642804765109497, 0.4049732393634175, -0.3719553482841935, -0.590681156281407, -0.480694020639344, -0.4055941982439088, 0.10145879415609182, 0.07976242833864652, 0.37972925379699113, 0.2625866563448189, -0.3130068950055897, 0.1978752446160316, -0.41245093154927287, -0.022637071011672127, 0.0978511190910623, 0.025816987620404703, -0.5358540458317064, -0.952940520935628, -0.9055188203716362, -0.3227236535032458, 0.3023122815044351, 0.38278263548170555, -0.08774195960523985, 0.39191585068161866, 0.22834630638773815, 0.4754317461324555, -0.7836055637906294, 0.1022463191018556, 0.016134812762565443, 0.6403080771254658, -0.47697028384023804, -0.6030941754645215, -0.4245181851967914, -0.017396833638038723, -0.2340036340932052, 0.1155463018346037, 0.0648747632606458, -0.26150275172216914, -0.010515903659875389, -0.4990284430539151, 0.3432605673473471, -0.4790640159139729, -0.12617244724762802, 0.23560901070744134, -0.7434062962096453, -0.973284795467495, -0.22454133754627337, -0.4982441757415526, -0.633922568973315, -0.7320282111710293, -0.21304530794357274, -0.3285578689338243, 0.10056986762763102, 0.14750364462956922, 0.2975587995295584, 0.2988074464056222, 0.23552635423094023, -0.32985237850628285, -0.37443047089639825, 0.06568049146485874, -0.26059921512901707, 0.3097381864259408, -0.02647767976503102, -0.3986489310795441, 0.3041653139834883, -0.11110508278485194, -0.28598240468130937, -0.009531317576029085, 0.10820052517814444, -0.13317268828317713, 0.14726202213083175, -0.32213345939825366, -0.34631566163334626, -0.3832865653395968, -0.4027701913975436, 0.07628971541660699, -0.6686976322597196, -0.41092296747891544, 0.057552624801807534, -0.39367803809679064, -0.2731633083054294, -0.015656641495673213, 0.4116687580247083, -0.2907637014849003, 0.30972315244240234, -0.027930966302916072, -0.4155602927765453, -0.3450490938167966, 0.19747903820864904, -0.6166447923873581, -0.06429172809633057, 0.28835627033239875, 0.45686865360294177, 0.3672036988942456, -0.23445383235670497, 0.4400719205366877, -0.09278620621161855, 0.45817580786112116, -0.4877169493089766, -0.5043296332308658, 0.21319572715922314, 0.20668329055958562, 0.1342875625940597, -0.4581680175415265, 0.04853271251076576, -0.49474624047564414, -0.41597569993670525, -0.34474145049829175, -0.7269598397315569, 0.07486172949550905, 0.035488823277169554, -0.08286392011075223, 0.12406752800491062, 0.46911693639956115, 0.12380959903635318, -0.16123914720562202, -0.21972551208657387, -0.2562153800890503, 0.10162852782226804, -0.15885768622513227, 0.09385426726162178, -0.27676589250442835, -0.21566415436313463, 0.3586285536575146, -0.3125362619255961, -0.43413828643241764, 0.4286074778155212, 0.030013230302802202, -0.3525097978241307, 0.39112291195193577, 0.11637506801721788, -0.21460614159195973, 0.08069932663842072, -0.36239266842729817, 0.016643359566515664, 0.3356258787979084, -0.43043673159674395, -0.5392381761841507, -0.4414144825416705, -0.0005905483682770001, -0.1662105975411755, 0.011811643668855145, 0.4752154621815275, -0.1444246563964566, 0.13211811199387938, 0.312930209731012, -0.07277275983195144, -0.2804212603507332, 0.3447597695191394, -0.1588562192239364, 0.3342780115114616, -0.2597672084402897, 0.2754774435373169, -0.09919028731546924, -0.26089602732633654, -0.3419882337078315, 0.3594089573129722, 0.0021071753931309377, -0.4435581102599178, 0.1221323213948076, 0.15923371329545966, 0.12632303816830365, -0.2559425220029047, 0.06464196808043753, -0.3581708520839799, 0.17123790960698845, 0.06323804461706505, -0.40905263108469203, -0.01749047728455835, 0.2949265485303899, -0.5444048522215823, -0.12939797965880834, -0.02172270757454141, -0.15217145378633543, 0.17909018432827498, 0.4506755080168234, 0.23248680111912517, 0.4835798872725539, 0.14804710573516605, 0.06354153578618955, 0.45928124916337715, -0.41575821136712793, -0.11270179580011132, 0.25200079602047565, -0.271931117894878, 0.2627582603684046, 0.1639984463449027, 0.0634920961760672, -0.11392965058841216, 0.31588102678271446, 0.012288626865154357, 0.14805284140193534, -0.39508785347654574, 0.11644230279845137, -0.20506913360734322, -0.19421272021901267, -0.39852745546703006, 0.3019273228849182, -0.003554770542285102, -0.1118789124263634, -0.15669315961833793, 0.44328072518768297, -0.3857909155115505, 0.3731884528666322, 0.10865323056318628, 0.44746163996744853],
[0.3470239334816389, -0.024416085893500562, -0.3823669902796913, -0.37665484403092725, 0.3357533267813149, -0.10588014948415633, 0.3891514595925398, -0.5048930310996284, 0.0945994626936019, -0.2416337134617223, -0.42767383281244326, 0.4079273232056326, 0.22599410501919948, 0.025978046618043454, -0.4370319207024876, 0.13619530531620566, 0.06205215530743886, -0.49784839737109693, -0.2677506527730293, -0.023057884232351097, -0.06337171097223576, -0.1565577709389478, -0.48970573997527705, 0.41023217010619667, 0.28518091037761445, 0.2379588511877374, -0.2930499624830977, 0.3263419877805806, -0.3260754990651425, -0.19043634223351819, 0.3840666304208347, -0.051743086035848984, 0.32549350830825635, -0.1709810357106422, 0.19846009029916947, -0.3758218111696394, 0.020784480669031328, 0.17999543126120257, -0.18141592196078327, -0.23818382677365, 0.19392483058908297, 0.44817286080391355, -0.5117267720074589, -0.2545363109253934, 0.4388431314563583, -0.35140260316965155, 0.46080715316060533, 0.08137285238283384, 0.17951040827485198, 0.2661891355091554, 0.06581608682723726, 0.2847640568641846, -0.3570874744286017, 0.37269186286562944, -0.5128211979903902, 0.0181039103520542, -0.34621363596074745, 0.4133121846495695, -0.31059090763240754, -0.33827602016372277, -0.4465325301688663, 0.4141588456085325, 0.3447821770563031, 0.07816471846937798, -0.26307869677595, -0.41273043167336415, 0.2519968120828233, -0.12156750554532922, 0.12149412712823608, 0.5025253487835261, 0.18227890405403926, 0.47710482584615316, 0.07588207452111691, -0.03967797967293676, 0.6255934675770257, -0.08344902778946509, 0.23577123223868152, 0.19909807901032384, -0.15508158830135202, 0.0589426837925774, -0.5372014861674355, -0.3201452476414591, -0.43862298338785116, -0.1285050263322741, -0.39403707229201584, -0.22300103358380624, -0.4196873134174504, 0.10822749572842698, 0.011615858275831207, 0.006306929194753714, 0.3937733016139713, 0.1135763992895599, -0.43009867635238147, 0.1725045448666218, -0.790804984599096, -0.18083859472821068, 0.42863551067132555, -0.03989823608685369, 0.21755195875931624, 0.40634301774522996, 0.0625468102864591, 0.7763143877521425, 0.3484646012294865, 0.40241989950936013, 0.5626298333650761, 0.055878673211538436, 0.3594077464362279, 0.44053664099216605, -0.32158148109127377, 0.02208140282793175, 0.05109734234605355, 0.07451599745704932, 0.3859964749733354, -0.4802471528273444, 0.2673408266899032, -0.106104692235941, 0.4104735704673556, -0.36672560133818344, 0.3870208720054602, -0.5895954462139149, -0.17779179718417193, -0.2763454269818184, -0.11287360814472071, -0.39159544694083553, -0.03777412487635615, 0.4757599216877283, -0.017816670958201976, 0.7259842325202251, 0.5207406424706327, 0.36249263073515553, 0.6914071124676547, 0.6751455780537561, 0.08369856738556915, -0.30358637343090006, 0.3265589555108992, -0.4465544793000121, 0.03198984164251812, -0.18020144879493663, -0.26546038876724853, -0.03663143318426937, 0.44326341054240653, 0.36220522083558165, 0.416640410999306, 0.2495406554854788, -0.501002749157273, 0.2589345196836866, -0.03288152452036613, 0.024834518251963512, -0.16998603430848164, -0.6563935050745058, -0.21469472496438496, -0.27303559089906576, -0.019594679072553266, -0.03656058982286255, 0.46467193751489333, -0.3799298972800571, 0.2569652313109869, 0.5276230014849631, 0.13596916050040972, 0.662764132892585, -0.12139424567700854, 0.032496016664625475, -0.04654940418758229, 0.2151265319825951, -0.7763839437365746, -0.36572452154941726, -0.11156732753626936, -0.32976219559231273, -0.18958426353299712, -0.07655223401140561, 0.06464819174234449, 0.3561792491086894, 0.21930854611175835, 0.271027434982674, -0.4958826017790369, -0.5245428508468895, -0.4351669341182713, -0.6779756257835392, -0.15774831378636664, -0.39800174569541596, 0.16795331064966756, -0.5224723791806914, -0.005385934459371741, -0.40496866233114387, -0.5480925323102074, -0.16247044774057162, -0.8107904211229963, -0.686856350068382, -0.400562885082506, -0.7060038895040635, -0.6772749367494905, -0.7542545064375679, 0.0113300576857574, -0.09727337888196108, -0.0800057444121996, 0.47143515432805067, -0.45005936889346826, -0.21692125561546827, 0.09699511725551967, -0.21465461989142914, -0.5632324113455697, -0.4271915340906739, 0.30989479370946155, 0.17329281966196813, -0.19265819081484462, -0.34192930867679966, -0.34236001150575585, 0.45325732407931074, -0.19182164942951774, -0.5019958718552049, 0.06188592635111599, 0.12289664937395271, -0.8852567689291746, -0.6579375324277934, -1.18509532501137, -1.7746760071886345, -1.1899452582195849, -0.6343779920536626, -0.7641006145345943, -0.06663319372427473, -0.63812706746536, 0.0836092502123974, -0.10106394148523949, -0.15590813884820237, 0.021965348771671663, 0.43734812269676804, -0.41932817814718937, -0.2827769278059637, 0.08408417062627983, -0.22059534930144475, -0.38147223460505103, -0.6620237758649972, -0.4287654418752481, 0.0841223932168122, -0.12309253019041258, -0.35387239732888903, -0.10416744885222609, -0.8187158291263449, -0.16177842888109648, -0.9659672040500475, -0.7304905583874878, -1.423273777340216, -1.6805044790886374, -1.492134356188685, -1.4499858682902744, -1.4662558361303983, -1.4062879105709614, -1.281595281675946, -0.3020374669427541, -0.07597589351468721, -0.15283772631342468, -0.3961647031267104, -0.012876770474199528, -0.4965643879954239, 0.10492310688609448, -0.5613711782323347, 0.1154187722378349, -0.5135501620368633, 0.20043596811708153, -0.4222336311264839, -0.1623269515738764, -0.2839524710515368, -0.24229214202453936, 0.05496451321210538, -0.5212066269793438, -0.780342451858779, -0.22588633328224603, -0.97108642883585, -1.5911050425356963, -1.7719248089549622, -1.6084857006625575, -1.7060149604723827, -1.4659754361159396, -1.288731689716088, -1.3061028707877653, -0.9263297576558582, -0.20831015394570032, 0.024590099263390886, 0.1960405906137756, 0.4308317358555811, -0.4252813444917523, 0.38577663876810664, -0.36790692979232614, -0.31745107533816763, 0.013844104236148944, -0.10337129277172871, 0.12891619692961861, 0.21825099768228723, 0.40207788607599687, -0.49246309839923075, -0.24710728740276994, -0.04181830372726827, -0.756150942583769, -0.19076688578835366, -0.8027224309883211, -0.9701177316556809, -1.294465643303129, -1.4742531375983337, -1.6755907260818428, -1.2313752376187108, -0.8245875756146351, -1.3292989917434324, -1.3346508136332451, -0.6231597013312861, -0.08845954698954933, -0.06310887663454899, -0.5408549914956372, 0.07443733735316037, 0.1288212485023025, 0.04298238482798327, -0.10891333259147763, 0.3426606543277262, -0.5405449372801926, -0.5800143756478743, -0.5144559745088203, 0.12216722158376195, 0.30672179446799297, 0.016149774610671675, 0.237815011948329, -0.041412817566368804, 0.7243353617889794, 0.2936952589328709, -0.6776719527743323, -2.2480241754465595, -1.0269990869779917, -1.110664043253581, -0.2667904201243177, -0.1618470323475623, 0.49768440849817563, -0.7287792946853194, -0.0018438910238628005, -0.27972704354174843, -0.08062487474298034, -0.11235166176145979, 0.37081955941406725, 0.08744524294456965, 0.25079336934342883, 0.2577003893675526, 0.04678098560524476, -0.019943328747388522, 0.09608929602064485, -0.14225920286983953, -0.02331708273867239, 0.0018229359343455733, -0.13733458462587556, -0.45191366045795245, 0.3226160300426823, -0.0823358465447172, 0.6673548474659804, -0.69590041291665, -0.7758158932314811, -1.2972150103052675, 0.21282114728146384, 0.13095627290678916, 0.7040816425538445, 0.30800642098572273, 0.2547839535662952, 0.12256190805373725, 0.41736126211543967, 0.13590786633415577, 0.20647363299937616, -0.39473019154743466, -0.38152122682026884, 0.22693660602353682, -0.5035923152977217, -0.4760238935870203, 0.4288258077193228, 0.057501045500236304, 0.1268803972813033, -0.10601852126238083, 0.498404844374147, -0.2753099574407733, 0.22279237765474344, -0.3617171930109482, 0.16558065127881644, 0.3294992361781714, -0.04319694985185419, -1.192115846387723, -0.4843432313612119, 0.20761647958216542, 0.5927101217688705, -0.268207313491968, 0.7920847856201493, 0.3595101330346173, 0.5711821135019146, 0.6633552410561526, 0.6434061592379089, 0.8612531618211652, 0.6644861833737423, -0.2928388829713862, 0.20310567466773616, -0.15493935016587268, -0.3238619886392112, -0.23734583576877255, 0.11184558737541134, -0.32900395529496607, -0.5789569691232622, -0.2732995762393357, -0.31371593715020896, 0.019523885352955326, 0.3862635423996927, -0.16281438838155132, 0.2625724627583772, -0.08433735522394042, -0.13723696915435277, -0.8717170098776497, -0.6097770330124577, 0.06688823893360463, -0.2516864662340207, 0.11890738960593134, 0.26819414819990584, 0.9122140907026522, -0.1649770776101101, 0.24551405208440982, 0.538943006907511, 1.1017838882488418, -0.07643330182849331, 0.04692868852730741, 0.2637685781914756, 0.3545307978702586, -0.47964633263586126, -0.1623713627712699, 0.0906947492679807, -0.09626688840243804, -0.2772727004656395, -0.40694783656962047, -0.15563245971893802, 0.5562486346999157, -0.2837005432189133, 0.04690632534717109, 0.3208275214751988, -0.0009424778600964884, 0.1459990179081376, -0.05564565095265087, 0.07833704190028161, 0.26759776637768656, -0.9085867429204895, 0.126592619180836, 0.010345361376553805, 0.4556284738849258, 0.17498436112189575, 0.707666295602173, 0.9290218727884876, 0.8002948341170767, 0.7449215729666392, -0.388892157393336, -0.4442729766260061, 0.2899199904931047, -0.4607824619889094, -0.27276208692610243, -0.319525232322568, 0.2386034779606947, -0.5200836656175865, -0.45151670525889187, 0.030475254892525245, 0.5927487719643248, 0.11587786574448207, -0.0882350120555467, 0.4974409208324038, 1.0584895034741462, -0.32788753815408966, 0.20497350567928402, 0.11234394196191731, -0.8847551811208976, -0.20006318306387155, -0.502931845219459, 0.23785824170574174, -0.017451461070010617, -0.14880061443113307, 0.5607306697025902, 0.531034624324049, 0.02410346726021893, -0.06492457882493456, 0.275630905686641, -0.3499117488572908, -0.4918957166938442, 0.06598388610620401, 0.38721888368361207, -0.39223154744643324, -0.003432907761074747, -0.03147569864638928, -0.381769354816615, 0.28882080647438135, 0.4276983907603784, 0.16605737762095157, 0.2493588727047949, -0.2551468247840637, 0.4797313008402542, 0.25339290530553776, 0.45242638854665657, 0.009756131946153258, -1.0674254917235466, -0.1674355732797962, 0.12467046237192705, -0.3327944202033647, -0.13958590002094493, 0.25617768619013337, 0.1527100296185443, 0.3839865603203735, -0.4393391318593581, -0.4300520197662792, -0.1269834663791607, -0.07309234009029357, -0.0230621179435599, -0.12437977041273396, -0.42669787030115053, 0.1016693182171536, 0.213428099092852, 0.19645551119982524, -0.11285089727443474, -0.2019683462203701, 0.27082815724588527, 0.21698411192711015, 0.36625357024847854, 0.2026786642239536, 0.7070249348193998, 0.8969965361103547, 0.8886136931583807, 0.1838961886051378, -0.35755752459566087, 0.11376279797029668, 0.07832129235901797, 0.1261981369767958, -0.14314135879431875, -0.1286032636823033, 0.3403505110425464, -0.3436538937838076, 0.3034911019114823, -0.2008278933689807, 0.1400980884483107, -0.3652091519173147, 0.03454659270985916, -0.29637737515481, 0.3544230005815242, -0.3026716236278401, -0.12936865789549826, -0.3890217520341587, -0.6518870135298472, -0.6517636369874193, -0.039673831395159634, 0.08794387890121196, 0.8570105578575921, 0.48766338928253905, 1.1296815597109464, 0.9673065624659969, 0.6107321449267294, 0.34281389569008375, -0.44248966900787384, -0.1393362235614965, -0.3933961593880636, -0.2582920611202385, 0.39977120629187474, 0.15948500520046247, 0.039718200744235536, 0.3393071478903524, -0.2782037330770335, -0.48593672254908016, 0.13325307783013737, 0.030101452643681016, -0.3659257300527754, -0.40269837435911365, -0.11503990545916346, 0.04831097129389127, 0.26420335132346034, -0.4718086132306032, -0.6995365811482904, -1.0492783010852376, -0.06671796667156626, 0.16903010540949642, 0.12236615878159415, 0.46437414457266873, -0.3307660712136846, 0.7623154056864297, 0.647854195897847, -0.12399116965216123, -0.10433480780668798, 0.11180405750080251, -0.16800966897414593, 0.6311452788025957, -0.011413282275841038, -0.3964662133685895, -0.2402124217709929, -0.571179691298148, 0.42329928279485224, -0.5292144647555259, -0.2654940754174599, -0.21269016892988488, 0.12214603376849904, -0.47214983980278985, -0.18476696040700963, 0.019130631676322014, 0.40616710502603576, 0.10699881684056409, -0.7265775719503209, -0.15140950579988174, -0.7264095377704013, -0.7288825900176895, -0.6214654819641796, 0.03896757637924864, -0.3188248658249078, -0.07818124848601116, 0.48608140064789346, 0.41040910747063414, 0.132589261959139, 0.42164926309813217, 0.004162279732737638, 0.5346149855801936, -0.12464887239625257, -0.46229270747090206, -0.3307910296563947, 0.12784906676250948, -0.5581872233947897, -0.35034226168449656, -0.3544783098674321, 0.4038557320108937, -0.36530003523965493, 0.38903409964093827, 0.1474403577607673, -0.28277937376376566, 0.2502982822559727, 0.11604330208573076, -0.05189386085091454, -0.8455466589987967, -0.26906564426009455, -1.022594424603509, -0.3989077209002738, -0.6164374799964367, -0.4402012823043517, -0.352407290795595, -0.9882107397215243, -0.5603387088131337, -0.31692951766366856, 0.11474804422884048, -0.4321981369478226, -0.9043196535629766, -0.8168217982445398, -0.5735945357453459, -0.04276355337875981, 0.023177215760863647, -0.2883196395987551, -0.05958904718530548, 0.23743338018107532, 0.3549242717335448, 0.3770193918816894, -0.42360650384523474, 0.2054123537081674, -0.2123610876518361, -0.14169859123530437, 0.2479746818530923, -0.3045570307625307, 0.0858425507448886, -0.05517426722469703, -0.35282143101771907, -0.5989648219881398, -0.423819277436926, -0.9348761120468388, -0.8984507651857281, -1.00868086013897, -1.042373321842585, -0.8152174763731681, -0.42650808366219856, -0.44363886568329586, -0.9996093295878411, 0.16355642528970468, -0.6289918997335736, -0.4948418819965113, -0.0978550623458225, -0.00899502943656075, -0.23777850136310605, 0.0741882496552617, 0.3791493436791078, 0.13858163464044487, -0.20286717992917253, -0.0790111882418485, -0.3108944062575493, -0.3665406141513502, -0.08265851050811021, 0.2708194010342961, 0.21931911141850752, -0.10549721248245682, 0.2415953040362976, -0.4685844142881763, -0.6005446404787327, 0.04105166675823874, -0.5990259056437918, -0.6706933603479392, 0.030524723544882504, 0.22692475943715712, -0.12881943900599171, -0.5936496982661049, -0.5798082857787732, -0.33116619428717936, -0.07523663081871361, -0.15162321032283743, 0.2836064367239051, 0.03707100296787099, -0.36474902145103777, -0.03184304725633574, 0.1830631921640794, 0.2953500253107901, 0.36335423425699315, -0.26721429188389856, 0.401420404647794, -0.22273621805096527, -0.07815802750332271, 0.3345481407429293, -0.44593597569543897, -0.12742411766554065, -0.3724966780337589, 0.38222632288095215, 0.14723416165363187, -0.34501298391426594, 0.296580865819539, 0.1009564193694171, 0.09424959403802162, -0.48228989011282003, -0.06685602646606145, 0.0008079990439866211, -0.28191194903599354, 0.03045423138906644, 0.12488915458855279, -0.15403985125178432, 0.1218927632886517, 0.07109839337964367, 0.010997341648762272, 0.2986202631091334, 0.07790750598899676, 0.13419914719216602, 0.15258960864388288, -0.41389243728726693, -0.39351821276203985, 0.11242840630044422, -0.12274337763820309, 0.27601210768676343, 0.0038260306827383444, -0.4702405158214218, 0.3791740781951408, -0.33329346778311814, -0.35554401537420033, -0.15199591109520594, -0.022273332975205645, 0.23872800056265717, 0.45171454216377627, -0.07248909621186714, -0.408236102492431, 0.40378934656770255, -0.3924027419797845, -0.26261594225834173, 0.1642176758686581, 0.44255068438648787, 0.07864253351372683, -0.28306826806589047, 0.009354282913233066, 0.255836378268669, -0.03889059807149953, 0.0035833355855583765, 0.35173714728884004, 0.33890055028459093, -0.06046290533862886, -0.5118445992364862, -0.31632724954985864, -0.2920872605400052, 0.2972343504278638, -0.43322609737462947, 0.4670871718333357, 0.05610385449691467, -0.06460220887668845, -0.004699097463288159, -0.26740521922535915, -0.3124221356613211, -0.02196237047828306, -0.16872835881298848, 0.3855991989940511, -0.2883765056042857, -0.5001097634414073, -0.4996715785393755, -0.49528890604548115, 0.19578123649749532, 0.36156945076001684, 0.027116011224177908, 0.23762182105585866, 0.048171552815239715, -0.501488362365547, -0.14282526775750853],
[-0.260327365121127, -0.07926092527852929, 0.2901875277464374, -0.3948047817866541, -0.4389125229866697, 0.35885118946727257, -0.1879885954797978, -0.4171509044093724, -0.3047219057153059, 0.04106252006195839, -0.2695653930575729, 0.15886516816552415, -0.3077709721411749, 0.27799452228921223, -0.029280310735662268, 0.19409289171975608, 0.3973207539598588, 0.363445644433417, -0.3519081713462341, 0.4712689295976198, 0.2724596356199871, 0.25153436563892284, 0.44871723427612675, 0.11824394198796001, -0.26359976343456215, -0.28868293640727694, 0.3562487390924527, 0.335412783563942, 0.3903173913108722, -0.28511470495692837, -0.17939605581242463, -0.21176323137633485, -0.34437739524011346, 0.1441549511290108, -0.31981158395791104, -0.1504610537297006, -0.38252514189795583, -0.24300721462986227, -0.42645215807745795, -0.2929690532049178, 0.02318383133153483, -0.4709547296312771, 0.3205163611692896, 0.2882116673370471, 0.25402722602071204, -0.11873335933809881, -0.1087016572624113, 0.17660721146812763, -0.23976516759799418, -0.3174684325696686, 0.4087309914929899, 0.15398572970529142, -0.1840609522669035, 0.0042188848354970405, 0.4161943296972813, 0.06540709945046255, -0.48072334830037977, 0.1386092200838553, -0.5039580078982737, 0.06332323437342703, 0.25116922452790474, -0.23288097504785638, -0.09451332625759927, 0.021087852289457327, 0.10049396695992555, 0.17785494029172194, -0.1779916288105051, -0.15629728894536427, 0.10574853011327533, -0.4734486259892805, -0.3599969644179033, -0.30951976639555934, 0.4888818308111719, -0.03502198372153296, -0.0663251863530623, -0.2721615272992895, 0.4099456538565039, -0.20026439378968655, -0.43247234959435377, 0.45464988579554794, 0.39664690573260836, -0.2983948860335416, -0.26063772766167526, -0.0579171019681191, -0.4646448131449309, 0.06723876658704633, 0.013719607550948658, -0.1818220270412776, -0.21167349385820772, 0.4641815383405444, 0.20443477990372882, -0.498333182662855, -0.14896782488429072, -0.28462596849915656, -0.7447675472047064, -0.3049513684648095, -0.5558259539131832, 0.11921383867817469, -0.4240671916429568, -0.051662834104659966, 0.26010230887307395, 0.10546335451352823, -0.6196885492172016, -0.2616272898775137, 0.414869870177517, -0.32970191517858144, -0.2807898894371465, -0.31133494616364954, 0.246916498165759, -0.028064370085247068, -0.3713402208801043, -0.3925457481070088, -0.31470493294679225, -0.14187898536439192, -0.2377696634681902, 0.04506632239990298, 0.24561867372121865, 0.251208655921244, -0.11199153544676661, -0.6243830463744027, 0.05161202781147042, 0.19997758704974136, -0.46376996251871033, -0.04694593935417876, -0.011761324910481274, -0.15313590579184708, -0.5936729334273086, -0.07850460058119342, 0.3222462529786207, 0.032537079422886195, -0.14879457372985075, -0.45253613598461834, -0.2814462508733761, -0.3262642524813372, 0.2138983373946071, 0.18967194136264542, -0.24215471362276508, 0.07627292104250728, 0.27067630325172953, 0.208793335339303, 0.03169010134208511, -0.24103999234285006, -0.3261003093802574, -0.052685566269301334, 0.4397913720995015, 0.2883537676016537, -0.25341016162185687, -0.257305799520801, 0.033158791283070074, -0.07571557293349196, -0.34645640739120925, 0.6327794413892591, -0.10579382701646717, 0.42112067056958186, 0.2744679036820799, -0.1979663713029289, -0.5635123834742958, -1.0083439437263324, -0.38039439536563996, -0.10797331756889694, -0.5801711147478772, -0.2583260205072934, 0.015788527840416088, 0.2780100244604432, -0.1264298387837272, -0.12528090287268404, 0.37251520832809765, 0.22907704864896888, -0.18507883065593228, -0.07275662078852585, -0.12167990181022366, 0.3784582403292043, 0.20669550472165793, 0.3057527961128601, 0.7778074909203462, 0.22088396530628715, 0.38977441673380564, -0.1871765705483931, -0.2315969327382875, 0.336021564052936, 0.37596740169479703, -0.06557511196665093, -0.46356033486956305, -0.09217249286045036, -0.9323317209771936, -0.5301745366976186, -0.36957817908784146, -0.6616063357543682, 0.021370197784135875, -0.3013757681395631, -0.5431209262733372, -0.03230756171766264, -0.3134350452103191, -0.2773808006617895, 0.18192648811238374, 0.06977360123209099, 0.47404474938699936, 0.41154587348658256, -0.028590317897855627, 0.20778791744437733, 0.2841726519451258, 0.4398408797371194, 0.6710373730051828, 1.18803004652626, 0.14694608403977258, -0.09960452792658614, 0.569139439313353, 0.20018245541923257, 0.4817293337012744, -0.23129418426348453, -0.452595200566617, -0.48023248583890565, -0.7309765654763177, -0.38844915407753283, -0.7628230641540845, 0.02186173022313748, -0.045969931545404054, 0.42797650657962527, -0.11709985799108634, -0.4852316595760398, -0.47292916026477444, -0.31445139481788204, 0.31226145237878233, -0.20874393570474345, -0.1776451657620867, 0.03922136488559794, 0.16430116431974337, 0.3077960811579709, -0.1429759449145619, 0.5380037370578572, 0.6325411061299627, 0.4060297274638657, 0.4900779355830851, 0.07709079502702545, 0.3138405812630421, -0.12432058103312041, 0.27323100363823966, 0.1943703229663514, 0.25857494173472356, 0.03525242841028468, -0.2847216913256452, -0.5745578633838148, 0.280243455411383, 0.11219753971465951, 0.532493178642316, -0.14969640140106177, 0.49600440158729675, -0.4601631790041868, -0.3343767415284312, 0.13862977123677156, 0.17419068075864985, 0.35239820000682787, -0.31060406699932214, 0.2855932125244538, 0.3261111856776633, 0.26079682089442674, 0.6695607051879461, 0.45027258152195015, 0.5460871631106834, 0.2980623577457048, 0.2733629327824627, -0.41254601921748796, 0.029729267130638674, 0.7234102549980636, 0.804001390104582, 0.26424609613820543, 0.6649211502281258, 0.3995920040565391, 0.20175513472958284, 0.32049484944963597, 0.47786287705846503, 0.40897587566761523, 0.35356198044676856, -0.2536643236326215, -0.27477615627493496, -0.1386110213467025, 0.23472300268855306, -0.2935066160126276, 0.31504252132694105, 0.07703346617051002, 0.2633884337046115, 0.17816426489182002, -0.14741320065508642, -0.3089625760217991, 0.38500442618601793, 0.7866921960936627, -0.1405773850903671, -0.3785675808998472, 0.18028251734928294, -0.09892984378222378, -0.0557569971765081, -0.27803975722022134, -0.0504526248502159, 0.5862474269956237, 0.11152865907039147, 0.3071338093009956, -0.29747174065137677, 0.6210216536885883, -0.09445350602862046, 0.7396211362563699, 0.30576238344726614, -0.2895931670315445, -0.03171914666076225, 0.06798655318588541, 0.24708137660786086, -0.3286115667741435, 0.07159063797964549, -0.3923117052158019, 0.11047663046455476, -0.37749655036563606, 0.1351206440985719, -0.13699437253063027, 0.24311958344138096, 0.3718073742504776, 0.33206648988502596, -0.10717804775824491, -0.06506219835274515, -0.20907498341523054, -0.3963096556213123, -0.15575000102126013, -0.7685448405214278, 0.20621577512843944, -0.05789029789298177, -0.007205876092070554, 0.036774539190986756, 0.0664311457686628, 0.15563595012794124, -0.05674834120754968, 0.13356431522270482, 0.35620258216272177, -0.1653098663043144, -0.3183275440713629, -0.12625953592242656, 0.2607984605809547, 0.43949104331754413, 0.4209658833017169, -0.050765108564761754, -0.0639526911731925, -0.024467890705560984, 0.14922630468175743, 0.08874229471271311, 0.2578218245241406, -0.6820880244742451, -0.29283343761900565, -0.6489935907118048, -0.8189589502451275, -1.3051678792785435, -1.5096494915633079, -0.79725421966629, -1.7226511542713951, -1.3123827528626961, -0.8463543834473932, 0.2714344553477895, -0.6256942355860059, -0.07376949602561912, -0.5888391780669654, 0.24734596997078517, 0.026874030868109987, -0.13137924020277522, -0.5383531705234457, -0.40305641049872765, -0.19449167385306748, 0.14288423621070295, -0.15887294064745994, -0.2710105411501827, 0.22423702913217966, -0.20502730997617097, 0.08568244916647477, 0.014726137046915026, -0.2581079864440125, -0.3151057300781326, -0.3770595612923571, -0.20310938048265942, -0.40926704813652287, -0.897591021460441, -1.9008029854525694, -1.5050487614492876, -2.475035111690479, -1.590865648039791, -0.7010973668715031, -0.022301906925995436, -0.5098088248045137, -0.7467816378509734, -0.732982945586122, -0.5894149757224125, -0.01959886031400168, -0.3047788380554475, -0.10857807840900302, -0.1443929337286463, -0.3057481345408424, 0.2530344563344762, -0.33464005568552013, 0.4845992381110224, -0.43995706532961076, 0.2622121661046617, 0.11897738690944083, 0.21245247164583575, 0.16414081412169296, 0.09703400199311482, -0.6858580240475153, -0.6812474436030757, -1.133771647522381, -0.8865449194152106, -1.346194418793144, -1.5673968735034955, -1.7428775439526025, -0.9163461277313594, 0.34358751380449054, 0.3025633560202914, 0.15240873156834894, 0.024769481628263278, 0.3950664009543479, -0.2304976410722322, -0.5408432466220904, 0.24233589198046868, -0.38798029243874504, -0.04897632870979575, 0.41616265190173246, -0.31695608313679596, -0.4717489005093227, -0.3339729941747675, -0.35765926326604114, 0.005736739225452118, 0.11369757482793376, 0.3388100543826743, 0.18808300592080834, -0.5500603153407577, -0.20713807479393623, -0.5060072972529657, -1.098730849273218, -0.7075288692944602, -1.3407200201221552, -1.640975478780439, -1.6244566513713625, -0.4938213090374707, 0.9702872921675391, 0.07682366937832484, -0.24691676432662393, -0.041727354286284365, -0.08089473214561849, 0.13761077842512986, -0.44657163138170103, 0.30007106234371805, 0.3074308174763321, -0.3150683723685018, -0.09185659202015867, 0.22215634071643342, 0.299042103633164, 0.050354829343412566, 0.19107867040281312, 0.36236181470747053, 0.013825243995921978, 0.366097053625597, -0.28202552367078043, -0.4565029750435322, -0.6603906175583563, -1.0590664873107027, -0.31961464305833165, -1.034837576752518, -1.2287071649494608, -1.4705193510086365, -0.32450855209593027, 0.4863209596164297, 0.9945533475001546, 0.1616853876962576, -0.28065879839613556, 0.0006877612412687062, -0.12551043027899603, -0.43685694797686836, -0.33024757483324496, -0.4473783478319287, 0.11174634108387023, -0.300172564096591, 0.20678940490733655, -0.06624388437779984, 0.3466801383674181, -0.10794410497139514, 0.4266706486712799, 0.38076355596016065, 0.15869909675267016, 0.03309229028680097, -0.46741632190568505, -0.6648088804770155, 0.08584362445988664, -1.206258261298788, -0.5282905354348819, -1.0177748649022451, -1.0327872361082642, -0.8905547673430229, 0.05567893987916457, 1.6976018041725374, 0.8137387233336278, 0.21693424386956095, -0.564087869203998, -0.04104396503511776, -0.320068711977016, -0.03215389653508865, -0.5843427120600754, 0.12654579818334913, 0.194996917459498, -0.33562951754913234, 0.32827724934757835, 0.08055916253655665, -0.5215371421800339, -0.32136521862445616, 0.4554889055355673, -0.11616856178722054, -0.13174415599976594, -0.11259433575993269, -0.2994916904987862, -0.3630164570794594, -0.05828456898132535, -0.9283942192037398, -1.369228151415624, -0.8060998935287591, -0.9323552493510928, -0.37152821347514575, 1.0019039089271216, 1.2365784238110478, 1.0059050038882684, -0.00176265328798166, -0.7518391150156984, -0.3986103552885375, -0.7300624260039986, 0.13215806894913015, 0.06432823199091507, -0.48880570536713397, -0.0306387743005575, -0.28571666106196847, -0.11823258616707684, -0.09740254672179899, 0.2288705370027394, 0.28035876918917857, -0.3583289182336298, 0.261659521910719, -0.5991467041805616, 0.004246016537978046, -0.8267067201370281, -0.36493676712734774, -1.2117215250627622, -1.038082010189943, -0.8174981582195409, -0.8601554275284392, -0.5345465798748992, 0.5421086564480126, 1.1662683655393937, 1.242196975827268, 0.9962709167194675, 0.5549844860642809, -0.6266328735208753, -0.8152558806818563, -0.5010827999634032, -0.37562257979195757, -0.4343343617905982, -0.5257565115807329, -0.3286139592971806, -0.2816673831247057, -0.5050496535948118, -0.19341461131254892, -0.4119821233810501, 0.4272066784344317, 0.1682127746575336, 0.3461041867238413, -0.19070804647234213, -0.3285031250531887, -0.35502464223423, -0.1681958237632712, -0.9559697547636358, -0.722296314865314, -0.6668292665768786, -0.2360892642095731, -0.11295403510595464, 0.7775516775458817, 0.9575558053559382, 0.5357733510350067, 0.6376971980487394, 0.6598698380925466, 0.28421705161769406, -0.5187869433735628, 0.2368132520691565, 0.2672931868625257, -0.1135915169316311, -0.3186806757331435, 0.2709215767656461, 0.23029542093935934, 0.3797662870232225, -0.39161757495816757, 0.4108395150630655, -0.2647217699406498, -0.35124194226359085, 0.03931520148035185, 0.03674069456042994, -0.6286817340994901, -0.26586889436019995, -0.6032583757185289, -0.7758040879392454, -0.7406866559829004, -0.6680042476608614, 0.7922577930412086, 0.10320205327363717, 0.2691736842543893, 0.1260443291062332, 1.079347761422537, 1.2127942689640656, 0.31487247560199755, -0.017150866064265722, -0.24222967845690271, -0.3543604090631814, -0.12343761223337028, -0.2573546968030302, 0.07864896712079984, -0.26693445028291646, -0.11777438124569017, -0.3556326648862053, -0.149777388033098, 0.3697917656507025, 0.08554057642212198, -0.23326939406526304, -0.3476473524504991, -0.15996835645741875, 0.06228667262073204, -0.6095520321421768, -0.3807824875082961, -0.8855640689026881, -0.002259433776946108, -0.00488412480438685, 0.2988118883638471, -0.28357070601009765, -0.6005653282023289, 0.1518467542865698, 0.1015071635501107, 0.6549727505597633, 0.6974968344245528, 0.047745522043621695, -0.5166577696662965, -0.014598769425049667, -0.4087350733949982, -0.5473488366802145, -0.06503388160435417, -0.3999583715955693, -0.40414006448808293, -0.4335800685221794, -0.07439916864439448, 0.007459237958542789, -0.38010136526402194, -0.13578887147441737, -0.024264762055778134, -0.6433925099628581, 0.16878861348010252, -0.16185539519242084, -0.21554726963810059, 0.2447954617702845, 0.3307711627890371, 0.4690526573653991, -0.11799338752692953, -1.1759530978464192, -0.8786309274332692, -0.5663334849490627, 0.23053632214610473, 0.393706091226516, 0.7029023587913762, 0.2945127001979358, 0.28527637133831757, 0.35474237575683076, -0.19929080960042717, -0.16829867471387175, -0.3119785636397649, 0.10611669564920008, 0.13472432434058457, 0.09007603813218455, 0.46439223840405214, 0.06273567701611513, -0.2040212106283335, 0.17320778975480183, -0.26075372536366237, -0.27545546009998007, 0.3159965626447118, -0.09443879085304185, 0.03315954077330995, -0.051380767275532445, 0.13119242126940386, -0.13526150436409415, -0.209443564173545, -0.06826621841683668, -0.5075365553149744, 0.03226874068358392, -0.2834475508315087, -0.34340344807269507, -0.7142636240633525, -0.028019914697788074, 0.4032306297678042, 0.003831280308395243, -0.2896341581756952, -0.2937876026299222, 0.14137976964578836, -0.2619390882855287, 0.0444412855058641, -0.005192011391612182, 0.3654413637864769, -0.34496404399301384, -0.4538542303801789, 0.1100958118554671, -0.018064245794724407, 0.42280613943840345, 0.30494396113048033, 0.037091662321701295, -0.13940990196162445, 0.6299033012396165, 0.04848388559626239, 0.22383354202334946, -0.09969949030008904, 0.23062967848552304, -0.35983876645966123, -0.4064098083477277, -0.6018083154702866, 0.04752645630182856, -0.11533519222460396, -0.16948148941077704, 0.07855257673979892, 0.33392150881001004, 0.37648515000826016, -0.260452459217944, -0.47550777210334844, -0.28385475615342476, 0.3299451659129873, 0.3331587983129319, -0.32722122255694697, -0.3705829242307529, 0.3248177431900515, -0.14920838644457607, 0.0836472560067896, 0.27812170010950904, 0.06380407558980292, -0.47240024919115153, -0.3496840926203264, 0.514738876269212, 0.03546682058249147, 0.1309194827667205, 0.035805346695760874, -0.5311134601594795, -0.4430557912102163, 0.3948840428567182, -0.06049857094724709, 0.08919210216178276, -0.6041357407262513, 0.0799857718452061, 0.025637582711540013, 0.4546034262213655, 0.4312635749532547, 0.057080566087123225, -0.3116747417738273, 0.21111942200521275, 0.15563924873789753, 0.15221382863817726, 0.4706171732236022, -0.0756451830589141, 0.2112399180936056, 0.4407651070397406, -0.031026180698141535, -0.4705315015438307, -0.2652870264636928, -0.4355807432317358, 0.44256979168409116, -0.003211373284714113, -0.015453226652035803, 0.293632943844526, -0.4089293030116814, -0.12641844120660622, -0.3089315719296039, -0.12677883343444418, 0.04119709675843729, -0.31577106716727577, -0.2897030753946891, -0.2993125937041685, -0.016588873449020117, -0.4068363992445462, -0.4902209256867298, -0.06460690751486793, -0.3867547360804107, -0.36235690640272805, -0.3023001672586091, -0.09232652763681312, 0.41671640799337295, 0.4486448316304362],
[0.11807796020658382, -0.10319838646373299, -0.06579222625026038, -0.25153402476981973, 0.4098147646871295, -0.3708108153202577, 0.014104244203494992, -0.12356627075131692, 0.10948403401961697, -0.22531899589224183, -0.2091474345876664, -0.51644771251932, 0.09276747020123059, 0.3723366122755633, 0.29639431514971315, 0.4579503979463832, -0.44846707131215857, 0.4607112028823167, 0.3815970337367668, 0.37856687703776337, 0.4637647761931115, 0.24750858072906975, 0.027290638074003105, -0.05010999448030372, 0.16152910850609034, -0.08790620132853595, 0.3755996315415092, 0.026909850634425223, 0.04677591084081986, -0.4051503782955964, 0.18556250753935274, -0.37705295442801223, -0.04840818166065074, 0.012989107518280406, -0.3343158271043364, -0.32250259545836624, -0.29051034876592036, 0.13775379082544795, 0.2149882102160114, -0.33733497500587073, -0.055741187413823855, -0.25492636466736435, -0.05183848469231685, 0.4225761704704246, -0.26252864586215674, 0.38087109212453324, 0.441432014334811, -0.3756846297421797, -0.023458573259694998, -0.36358773928326177, -0.050849230538562724, -0.08275416504255087, -0.2248141765966213, 0.42099687028496635, 0.380505709391578, 0.43217593277773514, 0.1243242367490366, -0.10789827640854273, 0.15094932710750095, 0.24589209336517442, 0.44522949963500436, -0.3959219803067167, -0.054589844933839816, 0.08575964763386287, 0.19821729903241297, 0.3882243410652928, -0.42041408270629743, -0.36416288234701716, -0.05492282170805921, -0.4883855871113284, 0.30971451130816763, -0.23545399350612164, -0.36761690416059534, -0.2568554974547611, -0.22377440711296856, -0.11984976478498545, 0.3904687931031373, 0.2844395284373654, 0.3810298270873586, 0.2844847785422214, -0.3218999940041102, -0.34020834670092753, -0.3989983748006771, 0.23855277444142473, -0.4894427907692134, 0.3354530120890501, -0.24116695694825913, 0.0774916302535317, 0.2051706684255942, -0.4596254082032951, 0.014934978631748155, -0.27939836143090524, 0.2968177538939956, -0.2493167345869437, 0.3011028348058388, -0.08136018642714846, 0.16710561028105442, -0.7326538576892985, 0.09338312522995842, -0.6119014141977343, -0.784558696614303, -0.2624041128948668, -0.5789518931969706, -0.06792834540677714, -0.09633180807844517, 0.015469769890596735, -0.2731822578389146, 0.24457991049514596, 0.39007970721022134, 0.34245663420867517, 0.40341538244116115, -0.10500398456897582, 0.323075532704201, 0.4772091878940532, 0.08454971179509746, 0.4616537783311698, -0.14620653805844197, -0.34129802303498513, 0.3216848780306764, -0.33194680227875467, -0.24985481179899324, 0.15792434019082857, -0.09465486380374176, 0.34694821979645013, -0.010427913852499773, 0.06152633943169585, -0.2830371898440149, 0.3109877857408715, 0.4552976472004318, 0.6081726483959287, 0.4542230958434218, 0.34263640943761, 0.021353090103283023, 0.20282248221969953, -0.12230871116687417, 0.23458529157951521, -0.007551450703593535, -0.07682864162616672, -0.08089567494523396, 0.32017294233169963, -0.38319319650183215, -0.05080118981395834, 0.0657035416991282, 0.15234472770123036, -0.4163928841512536, -0.1650386989189532, 0.5034070503285231, 0.41477456755234154, 0.42806779257111444, 0.003973492007173847, 0.40712950030799205, 0.0730780720589379, 0.7322009166592585, 0.3870557447544086, 0.09699736946679915, 0.5268716241011535, 0.428956271341464, 0.37779781364133, 0.5691571468123331, 0.45272006170575724, 0.5677196797894287, 0.41531244835464853, 0.20813938686806532, -0.6157895662344257, 0.003615111651649025, -0.2699121885351425, 0.3321374976479739, 0.3849415673971117, 0.2600558505632269, -0.005031035728754173, -0.5762048693293336, 0.04127306386207805, 0.1541507492751126, -0.15676379583602318, 0.5172539310379254, 0.23561348918312175, 0.4885858201375903, 0.0859874785785418, -0.010958487569999866, 0.24383770793891152, 0.7980254179766622, 0.7601632161057907, 0.49501296866348166, 0.20674195791590627, 0.47412626330040575, 0.453491347478943, 0.5954584414183813, 0.47842472118217155, -0.13008467742193008, 0.2996351146097175, -0.08871408622915904, 0.13151463943379446, 0.01510743877609174, -0.5187940913580431, -0.4375116916674908, -0.14591354062536974, 0.2352233483361452, -0.14981095341969247, -0.05765439725285065, -0.270077589434187, 0.3110697085607987, -0.03830641969794157, 0.3426492268430108, 0.4429930500434225, -0.5232492907864682, -0.5827676029808457, 0.5416747601104743, 0.4438890280573003, 0.326686868340487, -0.12693207443684354, 0.12576506589899336, -0.038069466522958326, 0.08753122626997993, 0.322986704897115, -0.19621478226389102, -0.15182113298067085, 0.36717856916605723, -0.16309471961935332, 0.5811014101347227, -0.15097511868406435, -0.40738202903932064, -0.12788194938372735, 0.4120740311331046, 0.09077947924644515, 0.4752884009126164, 0.481560238992501, -0.2258900624813929, 0.055643083871061996, 0.03032127846595135, 0.37333520452982716, -0.023700784373446693, -0.41535830016440156, -0.10986484539928477, 0.11538939267214668, 0.13304763533674463, 0.6260463976450211, -0.0020900286722462524, -1.0174284352729626, -0.02244497258803589, -0.7040943269405504, -0.3598702590947697, 0.2725581632459356, -0.6060237321814682, 0.13427818229767, -0.22140285529165335, -0.07771873384323888, -0.2671157578845546, 0.5177308493329141, 0.2619853710883057, -0.21649717239411037, -0.5095581169059237, -0.46485206635749066, 0.3986745530198436, 0.04122222335713926, -0.08998081668190644, -0.3695050301005883, -0.3436395260504555, -0.31162743733012804, 0.20848121388420954, -0.24000528197650842, -0.2914141193446232, 0.09138083007283639, -0.4682042499393398, 0.05479829560553169, -0.6430991298241423, -0.1920698636576125, -0.5193501982091269, -0.7279167752780662, 0.23857428969191202, 0.060946373368574044, 0.333882941620341, 0.03213492856920115, -0.042226510671440544, -0.01001242251858526, 0.15717806612839616, 0.06092861830361491, -0.17403550686460895, 0.03270177662067941, -0.2269549913829639, 0.08626286840403707, 0.24429018554661883, -0.41145790455733317, -0.17938942687530893, -0.2958862806618601, 0.37937244394403286, 0.14898062295582515, -0.5494821001818393, -0.793440928755478, -0.9306091679503166, -1.0051479487213717, -0.41140039887296775, 0.003988366356497892, -0.48841536452536727, -0.8087436562416648, -1.1962459181754683, -1.2372545052184818, -0.6935192932403921, -0.15176176772893193, 0.4253854914075908, 0.10951917410052879, 0.13438678077638036, -0.20856389089786181, -0.1898408993970203, -0.09736333128764492, 0.25997032414712795, -0.054582092180787876, -0.4036096515695062, -0.48048676706511906, 0.06544215002829216, -0.5016912295133293, 0.11274332669971555, -0.3176854317474715, -0.27654013373622854, -0.19142882443449136, -0.41092193039214714, -0.7389218597452721, -0.3254596693534754, -0.9070174997969663, -0.5601977618058299, -0.7428026371453096, -1.2229301363433058, -1.5554653791783504, -0.9119038711151526, -0.8511442087002791, -1.0711060369633412, -0.1542750262415438, -0.618821269169767, 0.36170260509251273, -0.2014618260974914, -0.028599279794160038, -0.5566793180062288, 0.13801708993096312, -0.6458232603298231, 0.3248520036762247, -0.3161523967561876, -0.506535571578558, -0.5078780856487263, 0.32208581432775646, 0.2640573736709131, -0.26137016212818487, 0.15681903777769482, -0.33895685564900935, -0.9736334252997892, -0.8299012913969462, -1.066183366593366, -1.7597319285867346, -1.3475713126701545, -1.785146788953895, -1.601224804799142, -1.4931038036645983, -0.9833294497500228, -1.1036610131172067, -0.5181825164649078, -0.1640873421762305, -0.7129138959276894, 0.06308615945445173, -0.4435469862821962, -0.6859613663797361, -0.0247078194619037, -0.14598979664048187, -0.38481449044530763, -0.4767134497292094, -0.2116729124728116, 0.23653243781731068, 0.1966517731428011, -0.14452318054895044, 0.3237832774914648, -0.4797649176102923, -0.05771323605874049, -0.7129303837459718, -1.1788520930679436, -0.9308618499250579, -1.4409940954220375, -1.1316234676746744, -1.7046240789613956, -1.0050938364425361, -1.530429217804105, -0.888879146015148, -1.0899385850754586, -1.2465830137135394, -0.7671407396915612, -0.455508309190723, -0.17152465497614852, 0.05991312609114086, -0.5205756691657629, 0.11390398627473923, -0.5817588350869276, -0.27820766282533455, -0.33127385979707386, 0.12373360986745303, -0.05782987481069379, 0.40027783467318373, 0.31805928981993287, -0.49409692178075093, 0.42681774388353866, -0.31311964485656946, -0.2761096404291214, -0.8995349811204358, -0.8884846248833236, -0.7359968651285904, -1.1446535556323096, -1.012509185533028, -0.41529516694757185, -0.9998295097744369, -0.27982404107658787, -0.27410709377614934, -0.06439304826240914, -1.2793415738544405, -0.40061881065753013, -0.3410662421963069, -0.3232669517776053, -0.5429999357183124, -0.5035729913292637, -0.1827286097902755, -0.44348146951832573, -0.6990198487462003, -0.1697629613752453, -0.4837875742930803, -0.2503850338405471, 0.12800172303522686, -0.3117420006400427, 0.16357340259337835, -0.4645583743544711, 0.09943008275593213, -0.2338534402062031, -0.24151103637971535, -0.7773031106301779, 0.01435635460297073, 0.3288819349084063, 0.0377775051264731, 0.4595804557576119, -0.008007991967989908, 0.41604282577700546, 0.5671878464078208, -0.436396251953921, -0.5054167155175908, -0.528604561524584, -0.5858464661910378, -0.30751176763634536, -0.5943756793346701, -1.0972730111729398, -0.36373851211294495, -1.0510977270882942, -0.17813946059293898, 0.11655557649222005, 0.1835302330615358, -0.2557289568164449, -0.49184317540567035, 0.20262112978239086, -0.3295752498595025, -0.38156941149689355, -0.4286497198109141, -0.3913835216683166, -0.20410834983508602, 0.1856636788494147, -0.26620911443465, 0.10763183070709868, 0.10710679166721881, 0.44091233978782557, 0.7819552471572611, 0.5820402873886973, 0.021970934531831708, -0.43156424473438254, -0.24955829510636046, -0.4638834278540121, -0.02637649541193098, -0.8222390704717598, -0.9933337581577042, -0.9926779073027047, -1.1518693850384611, -1.2911881343266882, -0.9905779794561159, -0.42739923894304305, 0.02389792139137222, -0.3021339947666499, 0.018939637724393575, -0.4970758748584173, 0.4645967067699292, -0.4717285237186787, -0.5717529908342368, -0.14861088521935448, 0.0959750021138221, 0.6468446921846972, 0.4301960215811242, 0.04479588377388619, 1.002327051363335, 0.353884940870963, 0.523820930483401, 0.48096819777986705, 0.3653746236083159, 0.028606425450103133, -0.6803462009106941, -0.2457989546789106, -0.42349727774143664, -1.4472505171196686, -1.716756765057637, -1.146249500101279, -0.7912156001085024, -0.8885722535663874, -0.2402727575453232, 0.022304878347368558, 0.15079020574333366, -0.018081509403238976, -0.3830220435718507, -0.4504163055446415, 0.05844185802038958, -0.25776577747120777, 0.026709819935377195, -0.3208911496672785, 0.6060962498519997, 0.21126832878339458, 0.23096294995832672, -0.10342400124938289, 0.198957212437023, 0.11055523767168583, 0.47505501523568605, 0.7496778245529122, 0.42459443707619104, -0.2506978199728108, -0.30449349332106485, -0.20407645557088852, -0.6777695120896304, -0.8157005186525687, -0.8395311611058761, -0.9219262420381092, -0.6440051188246301, -0.2637792526663462, -0.09919334687265896, -0.05899669294486529, 0.1905601326448022, 0.23502302310938733, -0.47734766626625197, -0.2386284598712128, 0.47495919539720327, -0.30947422293037663, -0.09320797752312149, 0.5327842291675242, -0.05386784921015132, 0.49501723163834654, 0.05957967989740734, 0.11830501216256627, 0.06398705128566953, -0.05614828875258915, 0.5006079401505134, 0.7973625788574432, 0.23654324998859144, -0.0014913772901692926, 0.20749547419089906, -0.2723832693621085, -0.23490196000942892, 0.08458462955948154, -0.7143650673956693, -0.3743367383025733, -0.501266682643463, -0.22037540892508928, 0.39548830495598014, 0.5401176417395334, -0.2143256049546166, -0.011695930124114786, -0.3143432750235817, -0.22264479220575387, 0.47193169838935295, 0.3282118586214959, -0.058967505833254726, 0.5804138246032302, 0.5769494119817405, 0.5210964035771063, 0.6734959187665807, 0.5150225661002062, -0.11830841896028807, 0.37656959934662876, -0.08269958280431648, 0.6577139697251179, 0.0537932721134963, 0.44996084665340474, 0.4285028685252092, 0.3059550295689126, 0.570782505530855, -0.22025890233426776, 0.5036563687137705, 0.3743053794321077, 0.5500717762966524, 0.588881362351553, -0.16536859377518098, -0.0942429236319592, 0.16295779357091453, 0.18239822575463455, 0.07849676920141391, 0.10647225143150618, 0.323027175791858, -0.14438434222468227, 0.30036508116714306, 0.09937247757210739, 0.3217193543072408, 0.5591744801361136, -0.19967368611528294, -0.4718821542877382, -0.08016477189616145, 0.05368670262221465, -0.50394211739601, -0.033570284458143265, -0.40103380092725505, -0.40083041834493016, 0.46697071916679844, 0.6609421163434611, 0.21587463930628828, 1.0166983638449156, 0.6760686448211727, 0.8598695940536671, 0.6047826701777259, 0.7826776509683351, 0.8539684467340384, -0.12383676215374333, -0.26141978232892127, -0.0008742772118941416, -0.2382592983604345, 0.24062053560275978, 0.09751340080324943, -0.22972331018139378, 0.32633589077015346, 0.31410780727264265, -0.38188821410660023, -0.2807751462899616, -0.25850794201269883, -0.12787439511396234, 0.062182323557341046, 0.030580976188796877, 0.13273766759877212, -0.4147356342075215, -0.16696896184211701, 0.003229883567151476, -0.24707771292778394, 0.2625026430696193, 0.4689587825758052, 0.9776282229658113, 1.2228249004110785, 0.6669183103671792, 1.0116276348090312, 0.8063148930787694, 0.5946570639784852, -0.01769702591822793, 0.33184468665500017, -0.512277481997717, 0.4401862768634121, 0.12639456684260097, 0.20100157846641284, 0.033149127934874366, -0.0805405974321379, -0.1952703245754946, -0.3104223361554808, 0.04107247566656252, -0.8715053950468444, -0.1888742659883244, -0.1109105904417454, -0.25990898522981004, -0.2359180659734182, -0.27090173340444945, -0.07086227185218961, -0.7809325620436136, -0.36381217886041883, -0.4541505281484644, 0.06542472645260478, 0.11791168320920282, 0.4637486921536684, 0.13102516901353703, 0.30642637597836175, 0.7584883638674571, -0.2546547863266738, 0.034330223201142526, -0.47077888928805894, -0.1912654038188063, -0.4179638397732154, 0.0022013056923481625, -0.2177677378691976, -0.2054573654997373, -0.2364098735492143, -0.734873009607001, 0.09698617175668998, -0.5966402918929428, -0.189544396303876, -0.8946226196999351, -0.5968644332393083, -0.33702663001657573, 0.02206101903910718, -0.2816099325464959, -0.5652730662790115, -0.1740815493311187, -0.42042015408964295, 0.30691286903745185, -0.13513155280356126, 0.3244165450052042, 0.14604121205650705, 0.2876848027630356, 0.23502320050534117, 0.6791826097626746, 0.47623287565528927, 0.19419935000194746, -0.14593721806662321, 0.1297906425508055, -0.34673083872155097, -0.4045956159636077, 0.31607159065787904, -0.373950635380294, 0.27767995624666925, 0.41547220621752295, -0.1013493406908702, 0.32099497874309657, -0.1106765530808832, -0.603885845912563, 0.04769802921486338, -0.22357446077962553, -0.017877723085749465, -0.1313761254369334, 0.07587030337268305, -0.028113598989387305, -0.5595143294934114, -0.05532820567959967, -0.4285362123185871, -0.6170668675423404, -0.657318818752748, -0.059467501520292634, -0.10111827349226762, 0.04638973643844552, 0.2356094273237135, 0.2627719914503071, -0.41027235368924364, -0.283654588238849, -0.515893320611616, -0.10815824028971084, -0.46738910539508594, 0.03221300632030908, 0.40394301390296405, -0.48131019526608737, -0.24955869969004274, 0.27241385074592506, 0.32629087687332525, 0.34095599150849526, 0.14618522871994558, -0.22156619460149954, -0.07546486327689347, 0.2383603146835272, 0.257063449575754, 0.35125184386721137, 0.4337230080262099, -0.3431075818292734, -0.062913128584064, -0.48808180719812577, -0.2963709679001186, -0.3754387496873794, -0.06350305186335031, -0.35652231283853336, 0.41434181335, 0.4373496246597857, 0.00764491747280511, 0.4218679429168465, 0.024440241331585445, 0.011562817857666002, -0.058225845357777695, -0.34119163827865684, -0.09154873017263095, -0.01852204730541895, -0.24653337180611296, 0.39514926472803813, -0.12237631620839007, -0.4313262045116214, -0.18610917212000974, -0.4883737310739645, -0.02152405439729149, 0.183939585039505, -0.3250492683176711, 0.29939507631649726, 0.3144350397248115, -0.37931575707260673, -0.015682350485594052, -0.08637737202696148, 0.008112907882958048, -0.4098782353514014, -0.3998353821625723, -0.2602009453963845, -0.18959656645507986, -0.5104008656201828, -0.0261600535447926, 0.36945309229451895, 0.10436803389209826],
[-0.32586422454638597, 0.43405044020442873, 0.29101803543270865, -0.4460621061671127, 0.07090232579457148, 0.3935792301408817, -0.35886816313131287, -0.32425360542783677, -0.1697536642397083, 0.2217838664562408, -0.41801936385433425, -0.1923431660578441, -0.2959318339181722, 0.3605538221378051, -0.42513281650164564, -0.2736492389934206, 0.4363020051769083, 0.1496155474944035, 0.0316289659467788, -0.010191669596969516, 0.29846257286588485, 0.16392027678652007, 0.05212659034858087, -0.21180518964045683, -0.23301232784208117, 0.4060824170404702, -0.41069605152200483, 0.47388300403851213, 0.2711298010387262, 0.15183528124270537, 0.1379903077907436, -0.06019456982310564, -0.4850163801517696, 0.23976407359061763, -0.5058832399874492, -0.1437124858531024, -0.44626609800264117, -0.013649384829347255, -0.3727372712545099, 0.2283617659937058, 0.43828547219127056, -0.28748919879060086, 0.436143222590616, 0.03930323152188126, 0.1574576248647684, -0.1990593726334716, -0.20475565977665927, -0.45431347795008653, -0.14833124595460478, 0.44544194031508816, 0.32500975731417436, -0.24963598495506775, 0.43315964501570436, 0.1589504548633018, -0.31093513130387185, 0.44166521597646513, -0.11821047783299618, -0.18908022148870787, -0.3814521713787088, -0.4298734821088992, -0.22157547375166914, -0.3341326482603069, 0.16310850887582404, -0.4295094821130525, 0.13375161375709202, 0.05565861332846757, -0.5645071592595897, 0.09443080404007462, 0.3636030933859105, -0.471868255940726, -0.20670344906730023, -0.33482176508631845, -0.16678250750376275, -0.1912880114625092, 0.409499338431475, 0.25220085296052386, -0.13185856079192124, 0.4025646949322742, 0.36242708045778743, 0.10182468582741681, 0.23568063409871026, 0.26671754185886776, -0.4945276229497738, -0.4195821805684632, 0.1911108441202972, -0.5138081592586538, -0.4180806317534919, 0.4402680137941483, 0.24683742677604886, -0.40636832116139415, -0.30319454168172866, 0.33914929059695603, -0.5503693186895691, -0.5647951966094327, -0.5705337167706418, -0.7063111770625523, -0.6274789912652247, -0.6990501152472609, -0.9772037319225464, -1.0029526405663913, -0.5554933161769215, -0.09964478873078916, -0.03683839825004818, -0.12537412222382163, 0.471706133785994, -0.06619179144098736, 0.6793425047076335, 0.21552738125789392, 0.4813152066442356, -0.21704688657866425, 0.2709457380140469, 0.12760906575922135, 0.13819789940093272, -0.3607855186820245, 0.08039960956431723, -0.4287049228732696, -0.4419361606529983, -0.2633106491257275, -0.0537473622317269, -0.45535565786084337, -0.8357969853402178, -0.6727244463518577, -1.1820391684599467, -0.7668600249487489, -0.6666115407489286, -0.9916191166172215, -1.0808408505712057, -1.1107115284557478, -1.2992139513199832, -0.3837906342739994, -0.1950307893816179, -0.17204051934738987, 0.014890425519510492, 0.7487403519718503, 0.15550450031327956, 0.12305098571425552, 0.023332281760427467, 0.41095765475483775, -0.13103871696737443, 0.30660942586908757, 0.1407514320593379, 0.3117333397704418, 0.08402998122296303, 0.24504985487310316, -0.4331252892925197, -0.8638864124088539, -0.21526864749738853, -0.4142453374878906, -1.3014996988979735, -1.3946297351418697, -0.9923382670613157, -1.274640162373002, -0.46279228843126774, -0.6614191908035738, -0.48914893647752183, -0.47964335137921243, -0.7488531341935193, 0.3248953269305102, 0.35646354495463, 0.2574829128711921, 1.2088489127566302, 0.02684952057743834, -0.05054762424040771, -0.11635089109099325, -0.3451302434020836, 0.35289757219858964, 0.14705423120904657, 0.3061385485796928, 0.26027045523467063, -0.43046904991084795, -0.29569547714816785, -0.01367788884314115, 0.35761942378074996, -0.3281830504569371, -0.6303936102074978, -0.2496231248150987, -0.8629416245559302, -0.9201607593074641, -0.7408175086401361, -0.04346163743352223, -0.19363433614387757, -0.06310513357859047, -0.49088848498663606, -0.2951338487604094, -0.4077302544270595, -0.3814864633144076, 0.5347969681422459, 0.9152364864522454, -0.11224191416211178, 0.8744432477021686, 0.17113963300762258, 0.6404183746817718, -0.27974594611394654, 0.27741408366652265, -0.46155314535905717, -0.30126456914806604, -0.2179776581836891, -0.2854869243700734, 0.292583080628928, -0.20823367165899573, 0.3141707982595492, -0.6583268135673055, -0.20946719571610223, -0.39420621745125894, -0.9139656483869676, -0.0394719080001609, -0.3585616970262861, 0.6620278152131156, -0.03140593516468735, 0.4799360174653118, -0.09123840827017991, 0.10626801569016799, 0.4165276563595137, -0.014181457194609436, 0.5731100091790866, 0.5960538459753528, 0.050605991176982584, 0.5826710134943636, 0.08741030520589947, 0.1704914828672095, 0.8376011540622398, -0.048315613665696686, -0.09464674228709583, -0.19153121177685026, -0.3038640611347561, -0.3724432330744943, 0.27295324249293557, -0.5116257308614428, -0.163499582683682, -0.19911307359696925, -0.6352352268514986, -0.988957951721721, -0.46488867057201017, 0.1299158583259768, 0.1733604858139728, 0.2273238441592939, 0.0602201043634592, 0.24191891387090822, -0.24723077753896186, -0.23308803060452749, -0.3307937336601803, -0.0025345990513926174, -0.27789546855441344, -0.24861990776648127, 0.3183388614099169, 0.38910471145908965, -0.3369150338121392, 0.9787783249046718, 0.5284171762220108, 0.8754288885824856, -0.35310727369818556, 0.3841965850138579, 0.43334535412160635, 0.15871080773217944, -0.13910133125816931, -0.35213315817790686, -0.29368674864941086, -0.2370984141850751, -0.2406055961064271, -0.5118449821217275, -0.2979892320961174, 0.31475198544979355, 0.6231677711861758, 0.8840406450088243, 1.0918325877111668, 0.9313850316377849, -0.09950858446690469, -0.19950790672015747, -0.37899464896888657, -0.8950370976577492, -0.6475421084368879, -0.7571211929898745, -0.772424282087722, -0.5779988435905167, -0.29927651077676404, 1.0703527573225895, 1.1248779859318059, 0.08529292013726912, 0.5467021716652285, -0.2902076401191076, 0.3019507870334651, 0.2437624323372944, -0.400838461939539, -0.32661108888916524, -0.33074258302775356, -0.20956966288476114, -0.1016075947550546, -0.3084944932604247, -0.6715445012857554, 0.670535141077159, 1.0373637096443549, 0.9674928976257404, 0.6831608347297539, 0.93911851346761, 0.9656149523482693, -0.6531997273081271, -1.3482629107069346, -1.050471959408895, -0.7928594115345222, -0.6516546424781873, -0.7249944064215004, -0.6370413276684389, -0.10760031379430847, 0.8159001168601343, 1.19312076650052, -0.03841656336926736, -0.03649393901207524, 0.45431489607521086, -0.4408283981943407, -0.35308245921713766, -0.20308404563784743, 0.3586137099475807, -0.6321709847399569, -0.5112782209369614, 0.06989751184098801, -0.486338451825909, 0.17102223606589192, 0.07847917878640802, 0.5130480239998023, 1.547005197507683, 0.5857946884221306, 1.0612931808371366, 0.5622545918820455, -0.7472084095209083, -0.8344329134621, -0.12605981583374237, -0.7714246268432893, -0.2882711793142719, -0.25098460764957237, -0.46087429314567024, -0.27440211169909995, 1.026742816895216, 1.1207571223150778, 0.6351874673241886, -0.11743890459757986, 0.10166600013039452, -0.1952647285612287, -0.3658089461769168, 0.07861796543218831, -0.14356219297833533, -0.60651835862104, 0.05320761825050776, -0.004280505581126395, -0.30340781747220313, -0.560113465467552, 0.019915628364471895, 0.2712979280275556, 0.3588517912014079, 0.7101552297078579, 0.5122231657868379, -0.5211018855934798, -0.7109266657382818, -1.046699927301533, -0.4011762459431473, -0.2427645671541773, -0.11404052574809363, -0.6641301341858662, -0.6424550656073158, 0.17088735567134505, 0.8976088585191804, 0.6604924248601436, -0.17837797477050152, -0.008305784633438297, -0.15961438693626595, 0.13946896740011622, 0.21852475717286357, -0.2861684877104056, -0.04607155423074457, -0.009748115321142314, -0.37161596076296655, 0.5133595729736525, 0.11147054239518399, -0.027727720449859987, 0.29756678898381295, 1.0033302795437329, 0.9773900416992621, 0.8067205423016452, -0.10403522996948211, -0.9790145830089907, -0.4072040405733573, -1.1710218649719473, -1.3520073701269006, -0.4133166178978167, -0.5275698279287033, -0.7098401927650085, -0.2905130275838897, -0.2673136804211679, 0.5309504414385806, -0.31199367386561855, 0.25338759555301177, -0.26319736574405944, 0.4232535541119218, -0.3149639902144235, -0.0771848381233042, 0.45446675210994314, -0.44621417189769635, -0.2307902470800794, -0.2704927874521169, -0.2731818139293008, -0.5505139690055721, -0.3379824639962532, 0.47239080866796024, 0.43483100275255904, 0.6045563096482423, 0.8219636291450857, 0.21415475789851113, -1.036401611840949, -0.9857454179587594, -0.7628060259240307, -1.1243613763385987, -0.6935372468447003, -0.8543582631015598, 0.08817713415060424, -0.3469464684940243, 0.3388625748065018, 0.6317344941609162, -0.20535326743141277, -0.2858928091165945, 0.20851466010247152, 0.044906586992040184, -0.2959903668976348, -0.09207236834779461, -0.4765808184683549, -0.41051973596137614, -0.5143815838681961, -0.14124135487038264, -0.6375500111003084, -0.12296300730323556, -0.3504595419235498, -0.6776773769306764, 0.12694144183372502, 0.32109571732007636, 0.7093378595870884, -0.5726881084051827, -1.3623117078055078, -1.294963498490027, -1.4169266022666185, -0.6489707950448467, -0.927914419967347, -1.2196810425409124, -0.3356731114921361, -0.29762293571543935, -0.057573324965716, -0.3410234058206671, -0.2933283394284576, -0.4802639682204371, 0.20342511741422892, -0.21276289207573287, 0.08315777869236655, 0.3108994332587717, -0.04226172292980994, -0.24864481939733296, -0.4704578486975385, -0.2974193051719629, 0.20607974832325332, -0.22146491566806645, -0.4747242426327046, -0.4278888397231011, 0.7746847035845386, -0.07863942740879747, -0.26417165207925486, -1.3853915361550533, -0.42969091218454897, -0.556834318543078, -1.288980585009118, -1.2016709962137613, -0.6718324592854513, -0.2919672963953733, 0.14399372654161766, -0.747390933564851, -0.4734885982732418, 0.15512179932483577, 0.07961013002589397, -0.14770800057074837, 0.36931757487709305, -0.3055992698534733, 0.17037398929279599, -0.025216387548592973, -0.13251515071266098, -0.329666207608062, -0.8594328076537893, -0.268351087696928, 1.0233049121310318, -0.03338777779208746, 0.10100090076472784, 1.014037453124425, 0.6205249857559348, -0.34263587038395393, -0.6534085185215333, -1.5558348407015556, -0.8082464923645789, -0.2633681902176425, -0.3136202900089675, 0.14669299406094657, -0.8756717926060976, 0.12898517174713442, 0.10380135263756901, -0.632662321044107, -1.249047169628887, -0.7381828194367327, -0.5995224044372378, -0.4263299016542504, -0.28402897895637985, 0.060181652401473724, 0.2404725975070918, -0.23690477623209322, 0.1428726754071168, -0.45973721958899433, -0.07230372639819753, -0.27244851566639605, 1.0032376394079972, 1.2997731290049799, 0.975333850366933, 1.5362251154923101, 1.3344848862389138, -0.48961920122018554, -1.194025668461913, -0.9379283236585501, -0.447044266009663, -0.1888188424921432, -0.6876000864512212, -0.4041674179722991, -0.27009479703706596, -0.7357554866011409, -0.20159815918307222, -0.6762682721539452, -1.295235559274876, -0.21332665074598897, -0.15963241083931418, 0.18486221577598955, -0.21407161593960009, 0.024392230860223112, -0.06971235595429583, 0.3003470234727279, -0.3111377337595879, -0.4083248511808685, -0.8129676292472977, 0.37684751322641064, 0.9192167330477227, 1.2967089540979122, 1.839706833966648, 1.1151742992839033, 0.8535122490639055, -0.10221560652236053, -1.0190452255064115, -0.5274041165052005, -0.7752044719718422, -0.28594036657462873, -0.6266319256061438, -0.44061795636559126, -0.8383837104569211, -0.7666961162370308, -0.4750618229788388, -0.5105936392140354, -0.29925093133932534, -0.571598680144793, 0.3096777242269793, -0.517684309967689, -0.5483658736469222, -0.3589888744759835, -0.14153198957471522, -0.4066216671749062, -0.03577537720985562, -0.3851329215841971, 0.1828010407548596, -0.04876051484741207, 0.5428329792115134, 0.4829355165535301, 1.1467703451999571, 1.3098604746146267, 0.39944598006314613, -0.33034950687043274, -0.8990520540603778, -0.7339467214455055, -0.5597301487200896, -0.830919025499922, -0.6767494801799036, -0.16404769561598323, -0.8424089992058119, -1.1433679045823097, -0.4839091829170099, -0.6427966293377185, -0.3584516622450993, -0.21943447071463842, -0.09266931817137422, -0.5706665994449395, -0.4722976282997675, 0.4688508366950156, 0.3965816088572151, -0.035132891422494414, -0.27714143956317255, 0.189627057156652, 0.08151895077197792, -0.3943737465889995, 0.5667062516333115, 0.34332235765540464, 0.22716606491181887, 1.0808721099366154, 0.836658441168915, 0.16559823824557118, 0.21793488218600726, -0.14725641601108447, -0.8130924804774797, -0.9478683907586042, -0.19752196277492076, -0.18619707314775605, -0.5662347358984835, -0.6091387385514129, -0.19553007717847565, -0.6050512034406249, -0.3609279793657474, -0.07109426309685253, -0.03363437436796725, 0.3111842301827027, 0.1426265420145961, 0.007322230532770427, 0.3054226307426119, -0.02270828615376672, 0.18549868621101198, -0.3578831044044492, -0.4173488540243715, 0.02803236133747454, 0.2536434766760116, 0.8741167584952052, 1.3251917205234638, 0.9707714942549747, 1.1447516939860367, 1.2688977483953219, 0.40323463672483467, 0.5589901941176416, 0.3576195919374593, 0.6682135154101071, 0.6317818398629675, 0.10805383393200975, -0.1172088683742324, -0.5342819622123536, -0.2719232001160895, -0.1972250400318232, -0.5492970837301494, 0.1009326295997727, 0.26915260788299405, 0.14220110283928133, -0.37700896445926774, 0.04261370947713626, -0.3826480209785803, 0.19136097827118279, -0.38757241642542206, -0.5851609036733144, -0.5122360294122703, -0.4378648040379764, -0.7901573754960791, -0.06801863774110933, 0.5757449152408034, 0.5138469131719703, 0.1518166412634641, 0.16760550682472988, 0.4108624027161186, 1.0377890521470254, 0.42159158634552535, -0.23284765640323987, -0.08515706552678108, -0.9292523677092623, -0.8879499914149768, -0.6640845470810663, -0.3325096859757634, -0.005316972477994226, -0.0725074854840953, -0.2225182715587969, -0.13406550668405937, 0.15020598572563473, 0.39386456154292543, 0.2365613093297491, 0.19872379799255543, -0.2574726144735508, -0.3350348978717065, -0.1012703116510816, 0.11302245256606874, -0.15362893381442705, -0.20231559081616923, -0.49588090077312963, -0.35044821230764994, 0.5523946181261942, 0.4847499401522801, -0.3173723864227357, 0.25290744260516995, 0.21951250115887055, -0.2566480695120027, -0.645404506171431, -1.1594287402956607, -0.03496328900794985, -0.5976907022205998, -0.47097617899633215, -0.6454072545009165, -0.16173155437863906, -0.16267020421469225, 0.4104910711291548, -0.10817271040597191, 0.21008242417397172, 0.3750407013118023, -0.1257668137297937, 0.051586108622003135, -0.33024388842093744, -0.12888677513602273, -0.4136755894393661, -0.46820665920765475, -0.08204409767329018, -0.08383799942496681, -0.1571223467921938, -0.7348217342933375, -0.5096575892617362, -0.6912489339917423, 0.14565676771296324, -0.4450152621633934, -0.3918628331828021, -0.7584739812512995, -0.799725223928693, -0.6484938829822124, -0.03395943522732204, -0.3403657564098484, 0.08694596251053602, 0.23983627747317712, -0.3433164362424296, -0.1380046661090962, -0.2107078233245825, -0.24943412575864946, -0.19686665479009532, 0.10900641708698085, -0.04003507657540699, 0.09566523927497808, -0.2654122655882915, 0.1972615035531515, 0.32811128144044344, -0.45104159787716025, 0.44448025808245584, -0.18739501445891082, 0.08416342369418582, 0.17967658497426983, -0.17534981287823576, -0.3597433169688404, 0.1306052190995172, 0.04648642785207322, -0.1684238786373481, -0.1811528238129629, -0.26876546380656186, -0.35913642278751595, 0.007348870334343346, -0.1609394698082311, -0.4128634595653961, 0.1528136573972296, -0.007134403332338051, -0.38183230708167665, -0.2820821278961226, 0.13174802360920518, 0.30156780257135635, 0.15502022474673602, -0.2560897619649474, 0.18842918102836134, -0.2108250282501726, -0.36563803511156545, -0.32809600564803876, -0.434672055649579, -0.3269069506986281, -0.14390678531581597, -0.12710101589282694, 0.11172352470313558, -0.352692569201979, 0.1292216064701698, -0.34893643006114416, 0.08386599024659, 0.020760735872336074, 0.09137722953083477, 0.19363396586762688, -0.4484543707911998, -0.3181792188995571, -0.2638600279398075, 0.13472792836929998, -0.35903882068519183, -0.4028089443739465, -0.45127869773023926, 0.35606974767005123, -0.1356484479926995, -0.5112190070277031, -0.21668328849849286, -0.0565396103652723],
